svm_type c_svc
kernel_type rbf
gamma 3.05176e-05
nr_class 8
total_sv 257
rho 5.43519 0.947946 1.30342 0.120435 2.24248 0.0157904 -1.47438 -5.03217 3.32925 -2.4588 -1.40383 -0.707865 -1.27793 8.48543 -0.421068 0.761388 -0.938611 -1.03814 -1.04168 -0.956808 -5.48415 -1.0311 0.273195 -8.49869 -0.826537 -0.00155442 0.344642 -0.0717599
label 1 3 2 8 4 9 5 11
probA -2.5592 -2.52432 -3.28628 -2.55649 -2.5299 -2.9047 -2.02632 -1.81312 -2.39125 -2.58812 -2.4948 -3.04084 -2.69564 -2.16556 -2.07559 -2.56189 -2.84746 -2.5852 -2.82631 -2.6725 -2.34885 -2.72542 -2.92207 -2.14208 -2.55986 -3.07572 -2.23318 -2.56326
probB -0.17474 -0.719837 -0.481137 -0.646428 -0.513284 -0.704293 -0.424577 -0.570189 0.178838 -0.351356 -0.267293 -0.0539744 -0.308021 0.319436 0.137306 0.180974 -0.313171 -0.111256 -0.310864 -0.0614032 0.0345351 -0.36098 -0.0377053 -0.169999 -0.209327 -0.108453 0.196826 -0.0491298
nr_sv 54 48 27 33 29 23 27 16
SV
0 0 0 0 834.1856232266082 0 4006.054054054054 0:-0.6625441 1:0.53509934 2:-0.5 3:-0.7055012 4:-0.94284451 5:-0.88488503 6:-0.67272727 7:0.80403466 8:-0.66666667 9:-0.97444737 10:-0.52760434 11:-0.34777267 12:-0.5061352 13:-0.30026985 14:-1 15:-0.61904762 16:-1 17:-1 18:-1 19:0.089197176 20:-0.44190659 21:-0.0057648147 22:-0.39300034 23:-1 24:-1 25:-0.8831736 26:-0.96679539 27:-1 28:-0.64648379 29:-0.89957194 30:-0.90190973 31:-0.97573333 32:-0.97049869 33:-0.862786 34:-0.98676802 35:-1 36:-0.92224533 37:0.91764551 38:-0.69350438 39:-0.89326542 40:-0.96351653 41:-0.85838148 42:0.97806237 43:-0.29780812 44:-0.40853985 45:-0.73989238 46:-0.63431411 47:-0.67860907 48:-0.80482485 49:-0.16753524 50:-0.55396388 51:-0.0035866639 52:-0.90100378 53:0.14197361 54:-0.42320965 55:-0.4965118 56:-0.66433042 57:-0.65086664 58:0.14627471 59:-0.65086664 60:-0.17215626 61:-0.99295441 62:-0.97903788 63:-0.92343393 64:-0.6194426 65:0.75760052 66:-0.99999269 67:-0.97598752 68:-0.50372373 69:-0.74601071 70:-0.99680802 71:-0.99704579 72:-0.98252649 73:-0.99704579 74:-0.77474445 75:-0.71192464 76:-0.65526446 77:-0.80525642 78:-0.38680144 79:-0.497248 80:-0.23713333 81:-0.91263944 82:0.15220322 83:-0.39567157 84:-0.7292679 85:-0.69250639 86:-0.66883313 87:0.1897866 88:-0.66883313 89:-0.30873976 90:-0.99593923 91:-0.979575 92:-0.93601377 93:-0.59379689 94:0.66958531 95:-0.99999247 96:-0.97429821 97:-0.47250328 98:-0.93049282 99:-0.99673777 100:-0.99728468 101:-0.9844658 102:-0.99728468 103:-0.72729098 104:-0.69391201 105:-0.84688985 106:-0.80415087 107:-0.43544577 108:-0.4746061 109:-0.2549179 110:-0.92180422 111:0.22519721 112:-0.38195772 113:-0.83925402 114:-0.68191693 115:-0.66534261 116:0.27440076 117:-0.66534261 118:-0.41221834 119:-0.9965707 120:-0.98323338 121:-0.93515129 122:-0.57326203 123:0.53760061 124:-0.99999203 125:-0.97195045 126:-0.47663104 127:-0.99979147 128:-0.99643497 129:-0.9975999 130:-0.9877019 131:-0.9975999 132:-0.42195568 133:-0.73439391 134:-0.31242219 135:-0.75649151 136:-0.49078234 137:-0.4524538 138:0.027040691 139:-0.90999218 140:0.31319402 141:-0.39205109 142:-0.81464946 143:-0.67195452 144:-0.61598071 145:0.34229988 146:-0.61598071 147:-0.3488868 148:-0.99729983 149:-0.98541767 150:-0.94373875 151:-0.59338143 152:0.52941853 153:-0.99999265 154:-0.97404598 155:-0.51554485 156:-0.99983219 157:-0.9961172 158:-0.99824264 159:-0.99241501 160:-0.99824264 161:-0.29300057 162:0.042733118 163:-0.63531905 164:-0.63590178 165:0.74521864 166:-0.80242877 167:-0.17142989 168:0.020364895 169:0.68885382 170:-0.41361529 171:-0.8019536 172:-0.85936297 173:0.34922035 174:-0.50949348 175:-0.18190744 176:0.048798079 177:0.63808521 178:-0.21590138 179:-0.34504854 180:-0.49388606 181:-0.18900895 182:-0.54882316 183:-0.20258645 184:0.97482629 185:0.56050029 186:-0.54940662 187:-0.58705847 188:-0.66566395 189:-0.30063747 190:-0.38162826 191:-0.44351889 192:-0.058452652 193:-0.16183171 194:-0.26326979 195:-0.71149798 196:-0.77696361 197:-0.26538226 198:-0.34810822 199:0.16570627 200:-0.01281931 201:0.21078989 202:-0.037681154 203:-0.40245822 204:-0.34450635 205:0.44785909 206:-0.0044884381 207:0.20989016 208:0.95978173 209:0.09259341 210:0.13048743 211:-0.38291259 212:-0.54427097 213:-0.9321883 214:-0.98769088 215:-0.67817593 216:-0.73380353 217:-0.14621205 218:-0.97593061 219:-0.98464973 220:-0.9013061 221:-0.62235902 222:-0.96413858 223:0.17237636 224:-0.30399268 225:-0.58730936 226:-0.62235902 227:-0.63611558 228:-0.53741497 229:-0.44190659 230:-0.0057650007 231:-0.39300053 232:-0.68083261 233:-0.88734099 234:-0.85955229 
0 0 0 0 4006.054054054054 0 0 0:-0.69178418 1:0.69958336 2:-0.33333334 3:-0.8572192 4:-0.94034547 5:-0.85582216 6:-0.76136364 7:0.89602287 8:-0.66666667 9:-0.98887082 10:-0.56138089 11:-0.11844715 12:-0.027199169 13:0.1260523 14:-1 15:-0.14285715 16:-1 17:-1 18:-1 19:-0.30426508 20:-0.16509958 21:-0.31897748 22:-0.1739872 23:-0.91738892 24:-1 25:-1 26:-1 27:-0.97077732 28:-0.54749182 29:-0.79747617 30:-0.89560058 31:-0.97178575 32:-0.91782596 33:-0.91407191 34:-0.98342737 35:-1 36:-0.97135728 37:-0.97161005 38:-0.72676308 39:-0.90166403 40:-0.95995114 41:-0.96264574 42:-0.79444304 43:-0.62324904 44:-0.64980679 45:-0.91439751 46:-0.8825736 47:-0.54528106 48:-0.86024754 49:-0.57271783 50:0.046045214 51:-0.030812459 52:-0.93114228 53:0.062536145 54:0.45319728 55:-0.56425553 56:-0.70877207 57:-0.72365717 58:0.10931728 59:-0.72365717 60:-0.04330542 61:-0.99321993 62:-0.98246537 63:-0.92631947 64:-0.59573145 65:0.76673579 66:-0.99998805 67:-0.91266847 68:-0.46624488 69:-0.74604844 70:-0.99674403 71:-0.99661494 72:-0.91483366 73:-0.99661494 74:-0.93078539 75:-0.88257221 76:-0.5089326 77:-0.85707481 78:-0.64893191 79:0.11939286 80:-0.26529798 81:-0.94380776 82:0.0678176 83:0.44494093 84:-0.81023539 85:-0.72384507 86:-0.73378636 87:0.15897324 88:-0.73378636 89:-0.17212789 90:-0.99599094 91:-0.98416995 92:-0.93682851 93:-0.57549793 94:0.67379247 95:-0.99999031 96:-0.91198379 97:-0.44300054 98:-0.9305257 99:-0.99685169 100:-0.99711688 101:-0.91633784 102:-0.99711688 103:-0.92163626 104:-0.84949791 105:-0.77295067 106:-0.85167551 107:-0.64216893 108:0.15444552 109:-0.37185862 110:-0.95415802 111:0.15814001 112:0.37027392 113:-0.91558696 114:-0.71003631 115:-0.71873535 116:0.26999361 117:-0.71873535 118:-0.28991326 119:-0.99693471 120:-0.98497924 121:-0.94270495 122:-0.55082701 123:0.5924171 124:-0.99999054 125:-0.90847894 126:-0.42951094 127:-0.99981253 128:-0.99603277 129:-0.99701428 130:-0.91371149 131:-0.99701428 132:-0.82502615 133:-0.81229142 134:-0.31194671 135:-0.82092384 136:-0.60786433 137:0.17962128 138:-0.11382632 139:-0.95725677 140:0.31171218 141:0.28056473 142:-0.90291154 143:-0.76446916 144:-0.66374221 145:0.38979684 146:-0.66374221 147:-0.31389744 148:-0.99699654 149:-0.98074013 150:-0.94407859 151:-0.52993236 152:0.54340069 153:-0.99999121 154:-0.90199636 155:-0.46056432 156:-0.99983466 157:-0.9955303 158:-0.99672903 159:-0.91012798 160:-0.99672903 161:-0.39452089 162:0.003121316 163:-0.29907007 164:-0.40982218 165:0.66013526 166:-0.82267847 167:-0.38118689 168:-0.17590929 169:0.48102143 170:-0.18249243 171:-0.79054147 172:-0.7860164 173:0.17360366 174:-0.53780296 175:-0.28733462 176:-0.25876104 177:0.36028483 178:-0.035011355 179:-0.63247286 180:-0.59033617 181:-0.25524192 182:-0.59911681 183:-0.12877682 184:0.99316974 185:0.52078951 186:-0.51472072 187:-0.23294465 188:-0.43790288 189:-0.19380931 190:-0.36595183 191:-0.3773601 192:0.58868836 193:0.27532088 194:0.029586467 195:-0.025295088 196:-0.21486426 197:-0.38231544 198:-0.51035217 199:-0.087009272 200:0.037279457 201:0.2539223 202:0.10739825 203:-0.68579394 204:-0.39067054 205:0.4099904 206:-0.2480107 207:0.14315125 208:0.97825685 209:0.00018219624 210:0.0057020144 211:-0.68036081 212:-0.77691587 213:-0.97249829 214:-0.99659329 215:-0.67805016 216:-0.72924463 217:-0.14677004 218:-0.9152279 219:-0.94814005 220:-0.77336054 221:-0.44599444 222:-0.96622075 223:0.10552706 224:-0.45700851 225:-0.461096 226:-0.44599444 227:-0.76103925 228:-0.36054422 229:-0.16509958 230:-0.31897761 231:-0.17398746 232:-0.4509974 233:-0.8164124 234:-0.74848443 
0 0 0 0 0 0 1021.055888423824 0:-0.30186382 1:0.74154011 2:-0.66666667 3:-0.83271456 4:-0.95207358 5:-0.92760475 6:-0.78181818 7:0.85509591 8:-1 9:-0.99490833 10:-0.60214845 11:-0.49709893 12:-0.44125577 13:-0.073144994 14:-1 15:-0.52380953 16:-1 17:-1 18:-1 19:-0.19265225 20:-0.24943803 21:-0.24184571 22:-0.24621997 23:-1 24:-1 25:-1 26:-0.95823556 27:-0.88261256 28:-0.69062033 29:-0.89649706 30:-0.95722964 31:-0.97566144 32:-0.86216594 33:-0.94247119 34:-0.98335695 35:-1 36:-0.85042494 37:0.85318845 38:-0.78453146 39:-0.91378097 40:-0.97262775 41:-0.81234919 42:0.9547274 43:-0.55356674 44:-0.29429655 45:-0.88787201 46:-0.69970593 47:-0.72846324 48:-0.8140693 49:-0.22903143 50:-0.056514013 51:-0.31262971 52:-0.90389274 53:0.34455753 54:0.046589749 55:-0.58105072 56:-0.64323108 57:-0.60373199 58:0.36593936 59:-0.60373199 60:-0.34418901 61:-0.99217857 62:-0.97860369 63:-0.91500274 64:-0.55562021 65:0.73090834 66:-0.99999254 67:-0.88825329 68:-0.41666372 69:-0.74604759 70:-0.99592275 71:-0.99546107 72:-0.89004402 73:-0.99546107 74:-0.90198415 75:-0.69693532 76:-0.75838889 77:-0.80263816 78:-0.39320509 79:-0.0088800599 80:-0.3672354 81:-0.93249571 82:0.36243158 83:0.0033130593 84:-0.79780366 85:-0.70123013 86:-0.60776424 87:0.40572583 88:-0.60776424 89:-0.4711682 90:-0.99520987 91:-0.97783278 92:-0.92452105 93:-0.52826442 94:0.61023877 95:-0.99999216 96:-0.88650531 97:-0.38948114 98:-0.93051091 99:-0.99600898 100:-0.99555639 101:-0.89095172 102:-0.99555639 103:-0.87839433 104:-0.70920987 105:-0.90847304 106:-0.78080173 107:-0.48490282 108:-0.02122402 109:-0.36941796 110:-0.94156149 111:0.43341773 112:-0.052639887 113:-0.88525584 114:-0.69277405 115:-0.57262963 116:0.50544761 117:-0.57262963 118:-0.52171175 119:-0.99606877 120:-0.97910265 121:-0.92779686 122:-0.51356096 123:0.48820806 124:-0.99999111 125:-0.88292937 126:-0.41393555 127:-0.99978323 128:-0.99569089 129:-0.99546262 130:-0.88929755 131:-0.99546262 132:-0.75336026 133:-0.71512834 134:-0.32572634 135:-0.68948957 136:-0.46639857 137:0.039041275 138:-0.25631027 139:-0.91177791 140:0.53298731 141:0.0049518775 142:-0.82990147 143:-0.61882901 144:-0.49058824 145:0.54646181 146:-0.49058824 147:-0.51335535 148:-0.99630257 149:-0.97692781 150:-0.92593913 151:-0.50493158 152:0.3855228 153:-0.99998917 154:-0.87865213 155:-0.44830553 156:-0.99977831 157:-0.99532715 158:-0.9958116 159:-0.89060587 160:-0.9958116 161:-0.39345547 162:0.044816046 163:-0.76072502 164:-0.7104149 165:0.8436568 166:-0.84969458 167:-0.55943487 168:-0.69477328 169:0.8232391 170:-0.10345822 171:-0.64581956 172:-0.71387107 173:0.81142909 174:-0.22658293 175:-0.1749366 176:-0.068038308 177:0.91629431 178:-0.58102657 179:-0.29489096 180:-0.26725399 181:-0.028939215 182:-0.58670932 183:-0.4118891 184:0.99313421 185:0.76152333 186:-0.60776143 187:-0.55520314 188:-0.74387624 189:0.14614285 190:-0.04839845 191:-0.75216291 192:-0.011484388 193:0.47136715 194:-0.68688222 195:-0.81133473 196:-0.7841738 197:0.26721148 198:-0.79675362 199:-0.13825128 200:-0.076053232 201:0.12327458 202:0.011441359 203:-0.51159014 204:-0.30784933 205:0.48795504 206:0.52857274 207:0.41780338 208:0.94703924 209:0.28974816 210:0.29153227 211:-0.61833655 212:-0.72553531 213:-0.98920688 214:-0.9961744 215:-0.67804797 216:-0.72863685 217:-0.14681262 218:-0.89892189 219:-0.95401709 220:-0.90282588 221:-0.7444764 222:-0.925106 223:0.36432616 224:-0.3346883 225:-0.68766561 226:-0.7444764 227:-0.4431104 228:-0.63265306 229:-0.24943803 230:-0.24184585 231:-0.2462202 232:-0.75975716 233:-0.82109827 234:-0.96737878 
464.5810774663717 0 0 0 0 0 0 0:-0.64430922 1:0.79981114 2:-0.33333334 3:-0.93774195 4:-0.93757186 5:-0.90569918 6:-0.89090909 7:0.90817938 8:-1 9:-0.99915139 10:-0.87180034 11:-0.43929678 12:0.10431526 13:0.71826754 14:-1 15:-0.047619052 16:-1 17:-1 18:-1 19:-0.92916381 20:0.60905405 21:-0.83540415 22:0.39295636 23:-1 24:-0.91618354 25:-1 26:-1 27:-1 28:-0.36024209 29:-0.66422271 30:-0.89552856 31:-0.96637142 32:-0.97971589 33:-0.96253197 34:-0.98916052 35:-1 36:-0.99625319 37:-0.9554351 38:-0.66518809 39:-0.88982058 40:-0.96812233 41:-0.99617483 42:-0.92396444 43:-0.96943852 44:-0.45737562 45:-0.43952677 46:-0.13415073 47:-0.71484742 48:-0.72659489 49:0.37610213 50:-0.95765864 51:0.1767265 52:-0.89189928 53:-0.13145564 54:-0.98256827 55:-0.43868955 56:-0.70901278 57:-0.67382823 58:-0.20297625 59:-0.67382823 60:0.9999998 61:-1 62:-1 63:-1 64:-1 65:0.99999975 66:-1 67:-1 68:-1 69:-0.74617042 70:-1 71:-1 72:-1 73:-1 74:-0.43573293 75:-0.50183764 76:-0.69006029 77:-0.73406572 78:-0.17202504 79:-0.9526113 80:0.071377163 81:-0.90346034 82:-0.13801795 83:-0.96295571 84:-0.6933099 85:-0.73384297 86:-0.69811547 87:-0.15178087 88:-0.69811547 89:0.9999998 90:-1 91:-1 92:-1 93:-1 94:0.99999978 95:-1 96:-1 97:-1 98:-0.93066582 99:-1 100:-1 101:-1 102:-1 103:-0.24113856 104:-0.65549288 105:-0.84274232 106:-0.73593276 107:-0.40685454 108:-1 109:0.13919208 110:-0.91308362 111:-0.074456057 112:-0.98102044 113:-0.82325116 114:-0.69767776 115:-0.6931341 116:-0.044714115 117:-0.6931341 118:0.9999998 119:-1 120:-1 121:-1 122:-1 123:0.99999979 124:-1 125:-1 126:-1 127:-0.99997559 128:-1 129:-1 130:-1 131:-1 132:0.88561941 133:-0.75979137 134:-0.31017343 135:-0.67060176 136:-0.56448636 137:-1 138:0.90301892 139:-0.91860601 140:0.025700621 141:-0.95175469 142:-0.83861667 143:-0.6459363 144:-0.61907251 145:0.092729645 146:-0.61907251 147:0.9999998 148:-1 149:-1 150:-1 151:-1 152:0.99999979 153:-1 154:-1 155:-1 156:-0.99998763 157:-1 158:-1 159:-1 160:-1 161:-0.76634546 162:-0.24830442 163:-0.38036219 164:-0.55038103 165:0.52205601 166:-0.73733804 167:-0.51666016 168:-0.82915324 169:0.18546646 170:-0.29071751 171:-0.86690146 172:-0.92933793 173:0.11612385 174:-0.44569721 175:-0.51558627 176:-0.68353397 177:0.015132011 178:-0.05588824 179:-0.20813758 180:-0.26110493 181:-0.41616535 182:-0.56566764 183:0.060719041 184:0.99606246 185:0.23904584 186:-0.20243847 187:-0.58331739 188:-0.59432746 189:-0.54928434 190:-0.68727546 191:-0.60594993 192:-0.28194336 193:-0.5423821 194:-0.44396575 195:-0.83894232 196:-0.88147992 197:-0.89721078 198:-0.41170151 199:-0.52985358 200:-0.37322445 201:-0.14992399 202:-1 203:0.23071986 204:0.66102762 205:0.29519184 206:-0.86625004 207:-0.07417138 208:0.36133625 209:-0.13988398 210:-0.069673079 211:-0.97505938 212:-0.98324222 213:-0.99266191 214:-0.99991407 215:-0.67805549 216:-0.72937694 217:-0.14686526 218:-0.99642528 219:-1 220:-0.92775631 221:-0.65482919 222:-0.97557811 223:-0.091984373 224:-0.37808358 225:-0.67522739 226:-0.65482919 227:-0.77218826 228:-0.56462585 229:0.60905405 230:-0.83540419 231:0.39295593 232:-0.59583695 233:-0.82897794 234:-0.92710465 
0 0 0 0 0 944.8873329015868 0 0:-0.67079078 1:0.83962929 2:-0.83333333 3:-0.94287157 4:-0.98090516 5:-0.94231259 6:-0.83636364 7:0.85509591 8:-1 9:-1 10:-0.8543276 11:-0.54084525 12:-0.15608347 13:0.47363289 14:-1 15:-0.23809524 16:-1 17:-1 18:-1 19:-0.89637029 20:0.52761052 21:-0.78939003 22:0.34478622 23:-1 24:-1 25:-1 26:-1 27:-1 28:-0.59485405 29:-0.92973599 30:-0.9645789 31:-0.98484329 32:-0.95925176 33:-1 34:-0.97347631 35:-1 36:-0.99083174 37:-0.85914609 38:-0.80676246 39:-0.87832635 40:-0.93822641 41:-0.90658226 42:-0.76867808 43:-0.94387336 44:-0.33176935 45:-0.9315125 46:-0.66846418 47:-0.79699049 48:-0.57404626 49:-0.16235607 50:0.081264929 51:-0.34941176 52:-0.7357539 53:0.077773474 54:0.41223784 55:-0.39704095 56:-0.40765876 57:-0.41274159 58:0.078300804 59:-0.41274159 60:-0.064746917 61:-0.99343333 62:-0.97914473 63:-0.92863848 64:-0.59179067 65:0.77407749 66:-0.99998736 67:-0.91184384 68:-0.45823355 69:-0.74601797 70:-0.99649586 71:-0.99595587 72:-0.91371125 73:-0.99595587 74:-0.94810163 75:-0.65924895 76:-0.76741425 77:-0.56691 78:-0.3037661 79:0.17646757 80:-0.46868915 81:-0.77028588 82:0.097445103 83:0.46661356 84:-0.58577652 85:-0.43918322 86:-0.43488294 87:0.11636855 88:-0.43488294 89:-0.19206774 90:-0.99634091 91:-0.97910539 92:-0.94234307 93:-0.56787672 94:0.70226876 95:-0.99998837 96:-0.91113343 97:-0.42182819 98:-0.93048918 99:-0.99632378 100:-0.99616422 101:-0.91433304 102:-0.99616422 103:-0.94727993 104:-0.58987694 105:-0.85956892 106:-0.59835956 107:-0.26860285 108:0.23100474 109:-0.64233997 110:-0.78879545 111:0.19779094 112:0.4326698 113:-0.66556873 114:-0.38746273 115:-0.47282765 116:0.19358135 117:-0.47282765 118:-0.38694689 119:-0.99645585 120:-0.982509 121:-0.9345726 122:-0.51495494 123:0.5357461 124:-0.99998901 125:-0.90719144 126:-0.39874241 127:-0.99978325 128:-0.99562986 129:-0.99653612 130:-0.91468948 131:-0.99653612 132:-0.8817787 133:-0.48317155 134:-0.32954245 135:-0.53636428 136:-0.19173235 137:0.26008809 138:-0.45611537 139:-0.76829867 140:0.32654356 141:0.30450984 142:-0.62081568 143:-0.51860419 144:-0.46104271 145:0.23031137 146:-0.46104271 147:-0.41952575 148:-0.99619825 149:-0.97666016 150:-0.93299464 151:-0.48662909 152:0.45997553 153:-0.9999895 154:-0.90113213 155:-0.44507382 156:-0.99979558 157:-0.99531078 158:-0.99608299 159:-0.91347849 160:-0.99608299 161:-0.78915381 162:-0.23738756 163:-0.61056214 164:-0.63759526 165:0.47173536 166:-0.55137748 167:-0.29075566 168:-0.2809984 169:0.21138835 170:-0.015967965 171:-0.4847013 172:-0.76955588 173:0.72991643 174:0.14370323 175:-0.15932222 176:-0.18292694 177:-0.24615074 178:-0.12688939 179:-0.42880219 180:-0.52632314 181:-0.54476101 182:-0.30923434 183:-0.11728322 184:0.9680746 185:0.27260447 186:-0.098103335 187:-0.5772192 188:-0.66996132 189:-0.13904219 190:-0.10901409 191:-0.78464261 192:-0.66945965 193:0.093464719 194:-0.16789316 195:-0.78806183 196:-0.7946676 197:0.22086245 198:-0.16319808 199:-0.34987602 200:0.43301324 201:0.67004771 202:-0.17686644 203:-0.656097 204:-0.46993656 205:0.14461525 206:0.33052252 207:0.1285159 208:0.76150517 209:0.1355138 210:0.27183939 211:-0.95406217 212:-0.97490569 213:-0.97131057 214:-0.99923576 215:-0.67805442 216:-0.72932136 217:-0.14687281 218:-0.91698015 219:-0.94588688 220:-0.90747407 221:-0.72671275 222:-0.94155587 223:0.091075139 224:-0.076612456 225:-0.74506383 226:-0.72671275 227:-0.56247429 228:-0.62585034 229:0.52761052 230:-0.78939007 231:0.3447858 232:-0.68169991 233:-0.62685017 234:-0.8994592 
0 19.38750703095579 0 0 0 0 0 0:-0.609158 1:0.76463161 2:-0.5 3:-0.91711388 4:-0.9076527 5:-0.88840383 6:-0.85454545 7:0.85509591 8:-1 9:-0.99883709 10:-0.84296774 11:-0.5143295 12:-0.18549731 13:0.37827248 14:-1 15:-0.33333334 16:-1 17:-1 18:-1 19:-0.8376708 20:0.41228406 21:-0.73175771 22:0.2587904 23:-1 24:-1 25:-1 26:-1 27:-1 28:-0.60194977 29:-0.86293686 30:-0.90488003 31:-0.97725863 32:-0.91804346 33:-1 34:-0.98717249 35:-0.94868997 36:-0.99556601 37:-0.90331299 38:-0.76685009 39:-0.9490687 40:-0.90773874 41:-0.88544173 42:-0.78526667 43:-0.92382496 44:-0.36097392 45:-0.95714537 46:-0.66089759 47:-0.78473858 48:-0.62228293 49:-0.17150934 50:0.30852021 51:-0.32845881 52:-0.804301 53:0.12771503 54:0.705237 55:-0.4540752 56:-0.43780657 57:-0.44498691 58:0.13176502 59:-0.44498691 60:-0.13706269 61:-0.99329357 62:-0.98250711 63:-0.92711969 64:-0.59756743 65:0.76926918 66:-0.99999405 67:-0.86384 68:-0.4681286 69:-0.74617811 70:-0.99654365 71:-0.99592196 72:-0.86278278 73:-0.99592196 74:-0.96693599 75:-0.65601397 76:-0.75834118 77:-0.61031619 78:-0.31310176 79:0.39329235 80:-0.47023757 81:-0.82648002 82:0.13791131 83:0.67496093 84:-0.64768859 85:-0.46860786 86:-0.46344142 87:0.15964416 88:-0.46344142 89:-0.20722955 90:-0.99624764 91:-0.98081465 92:-0.94087347 93:-0.58721489 94:0.69468002 95:-0.99999494 96:-0.86321069 97:-0.45442893 98:-0.93062854 99:-0.99672922 100:-0.99575793 101:-0.86234891 102:-0.99575793 103:-0.9640547 104:-0.59188642 105:-0.88150535 106:-0.61465212 107:-0.29788411 108:0.41084895 109:-0.56171088 110:-0.83156638 111:0.22383813 112:0.62634896 113:-0.7086499 114:-0.46015183 115:-0.47497 116:0.22974488 117:-0.47497 118:-0.27616681 119:-0.99696663 120:-0.97969599 121:-0.94439323 122:-0.57131116 123:0.60600219 124:-0.99999506 125:-0.86002149 126:-0.46605469 127:-0.99988927 128:-0.99640016 129:-0.99512048 130:-0.85844359 131:-0.99512048 132:-0.92112813 133:-0.54299828 134:-0.32675489 135:-0.56957464 136:-0.22617577 137:0.41288859 138:-0.4876546 139:-0.80294262 140:0.33438516 141:0.53010977 142:-0.65921769 143:-0.5666395 144:-0.48043688 145:0.25235685 146:-0.48043688 147:-0.36715919 148:-0.99673777 149:-0.96994522 150:-0.93635189 151:-0.55165939 152:0.47486707 153:-0.99999356 154:-0.85206089 155:-0.50409568 156:-0.99984682 157:-0.99622682 158:-0.99392445 159:-0.85621201 160:-0.99392445 161:-0.75865765 162:-0.23902084 163:-0.55177942 164:-0.6215072 165:0.46081691 166:-0.53425728 167:-0.47983125 168:-0.56048541 169:0.28147868 170:0.063207896 171:-0.50001981 172:-0.76586999 173:0.7232069 174:-0.0055524408 175:-0.3716915 176:-0.18485053 177:0.10999444 178:-0.40744377 179:-0.50214514 180:-0.5815573 181:-0.46791319 182:-0.35532838 183:-0.17553009 184:0.99505938 185:0.35238047 186:-0.15205177 187:-0.58067313 188:-0.65535024 189:-0.15702692 190:-0.07615251 191:-0.61455618 192:0.022186299 193:-0.30417628 194:0.0065412159 195:-0.70213546 196:-0.81673329 197:-0.17862597 198:0.16615153 199:-0.29033455 200:0.011299978 201:0.47088542 202:-0.40622779 203:-0.51760304 204:-0.24478945 205:0.39833567 206:0.34418371 207:0.19161109 208:0.86545526 209:0.16780975 210:0.27098674 211:-0.93751058 212:-0.95997146 213:-0.99207207 214:-0.99972613 215:-0.67805564 216:-0.72940556 217:-0.14686434 218:-0.86274391 219:-0.92635124 220:-0.8612681 221:-0.71004746 222:-0.92982354 223:0.15600389 224:-0.11171648 225:-0.69515333 226:-0.71004746 227:-0.59084885 228:-0.6122449 229:0.41228406 230:-0.73175776 231:0.25879001 232:-0.66869037 233:-0.89990523 234:-0.88141079 
1034.048495541909 0 0 0 0 0 0 0:-0.58858166 1:0.70393148 2:-0.5 3:-0.89348528 4:-0.91455543 5:-0.74186341 6:-0.83636364 7:0.79485511 8:-1 9:-0.99886852 10:-0.80021444 11:-0.58940811 12:-0.15608347 13:0.5651402 14:-1 15:-0.33333334 16:-1 17:-1 18:-1 19:-0.90221673 20:0.54094418 21:-0.79562231 22:0.3548069 23:-0.85209279 24:-0.94264076 25:-1 26:-0.96277059 27:-1 28:-0.49582024 29:-0.82767753 30:-0.9529719 31:-0.98353819 32:-0.9784862 33:-0.846154 34:-0.98516415 35:-0.93076601 36:-0.97948718 37:-0.88817512 38:-0.71223811 39:-0.89326769 40:-0.89388165 41:-0.93913301 42:-0.78675585 43:-0.94546903 44:-0.26383595 45:-0.92933969 46:-0.75590379 47:-0.75489832 48:-0.65488499 49:-0.30217195 50:0.081015708 51:-0.29079875 52:-0.78119003 53:0.16641597 54:0.30129704 55:-0.49367233 56:-0.42063914 57:-0.46153349 58:0.18735118 59:-0.46153349 60:-0.19136064 61:-0.99316666 62:-0.97716438 63:-0.92574053 64:-0.55242473 65:0.76490292 66:-0.99998424 67:-0.90870186 68:-0.40225192 69:-0.74603784 70:-0.99567733 71:-0.99551844 72:-0.91067325 73:-0.99551844 74:-0.94445279 75:-0.75458956 76:-0.70684335 77:-0.65258839 78:-0.43681832 79:0.1635268 80:-0.41992187 81:-0.81157555 82:0.17865247 83:0.34767775 84:-0.70324812 85:-0.42822781 86:-0.48421379 87:0.22734027 88:-0.48421379 89:-0.32979617 90:-0.99590933 91:-0.97750843 92:-0.93554262 93:-0.5235453 94:0.66715238 95:-0.9999858 96:-0.90747528 97:-0.36393598 98:-0.93049727 99:-0.99557253 100:-0.99582784 101:-0.91167142 102:-0.99582784 103:-0.93983529 104:-0.71676677 105:-0.83593385 106:-0.66436784 107:-0.44330003 108:0.20239387 109:-0.51024413 110:-0.8357583 111:0.26584949 112:0.35109205 113:-0.76542201 114:-0.37466069 115:-0.49471301 116:0.31894315 117:-0.49471301 118:-0.43812837 119:-0.99653724 120:-0.97980074 121:-0.93582306 122:-0.49717459 123:0.54425082 124:-0.9999869 125:-0.90379458 126:-0.3651161 127:-0.99976845 128:-0.99494036 129:-0.99593581 130:-0.91047651 131:-0.99593581 132:-0.86609826 133:-0.62224654 134:-0.31669506 135:-0.62202432 136:-0.33089055 137:0.23407251 138:-0.4029709 139:-0.82652862 140:0.39150073 141:0.31676329 142:-0.70433568 143:-0.49070574 144:-0.48985796 145:0.35183161 146:-0.48985796 147:-0.45213796 148:-0.99628407 149:-0.97599035 150:-0.93225246 151:-0.47731325 152:0.44953485 153:-0.99998839 154:-0.89912931 155:-0.42150187 156:-0.9997842 157:-0.99486784 158:-0.99594189 159:-0.91148512 160:-0.99594189 161:-0.79294609 162:-0.22564022 163:-0.68496439 164:-0.6765453 165:0.70321292 166:-0.65806126 167:-0.15320608 168:-0.53693737 169:0.22390961 170:0.19584785 171:-0.58118644 172:-0.79875544 173:0.61662809 174:0.14176659 175:-0.08132259 176:-0.033626869 177:0.061660894 178:-0.10813817 179:-0.52275409 180:-0.63594557 181:-0.09570836 182:-0.37542707 183:-0.21727829 184:0.97158928 185:0.39183097 186:-0.17585839 187:-0.613602 188:-0.70949721 189:-0.10465837 190:-0.05761926 191:-0.53410531 192:0.13758887 193:-0.1356383 194:0.32261915 195:-0.57918181 196:-0.76366148 197:-0.33084958 198:0.34163128 199:-0.54313818 200:-0.3545642 201:0.57040071 202:-0.098688763 203:-0.58377117 204:-0.53672159 205:0.24782989 206:0.45494943 207:0.2356922 208:0.78752684 209:0.20229526 210:0.30931248 211:-0.9553763 212:-0.97635568 213:-0.99731092 214:-0.99990137 215:-0.67805548 216:-0.72937898 217:-0.146865 218:-0.91683719 219:-0.94446631 220:-0.92194996 221:-0.76216282 222:-0.93618529 223:0.19411094 224:-0.15375874 225:-0.73694669 226:-0.76216282 227:-0.52701348 228:-0.6462585 229:0.54094418 230:-0.79562235 231:0.35480648 232:-0.72246314 233:-0.99830557 234:-0.91096528 
0 0 0 0 0 241.7464140084373 0 0:-0.33837709 1:0.81361931 2:-0.83333333 3:-0.89487893 4:-0.97364794 5:-0.92038778 6:-0.78181818 7:0.85509591 8:-1 9:-1 10:-0.74449493 11:-0.59900426 12:-0.33741085 13:0.24411351 14:-1 15:-0.42857143 16:-1 17:-1 18:-1 19:-0.64589684 20:0.14957458 21:-0.54761906 22:0.093797117 23:-1 24:-1 25:-1 26:-1 27:-1 28:-0.78483042 29:-0.9392247 30:-0.95218178 31:-0.99096874 32:-0.98313875 33:-0.87347245 34:-1 35:-0.91458984 36:-0.95571532 37:-0.46700293 38:-0.78168395 39:-0.97949724 40:-0.89995375 41:-0.8832163 42:-0.20203875 43:-0.78758265 44:-0.20694024 45:-0.90370562 46:-0.71649715 47:-0.77002738 48:-0.67700826 49:-0.24882748 50:-0.051151709 51:-0.24213748 52:-0.78520659 53:0.22858859 54:0.33043236 55:-0.45562655 56:-0.45275583 57:-0.46650063 58:0.24649301 59:-0.46650063 60:0.17923345 61:-0.99398091 62:-0.98393772 63:-0.9345892 64:-0.68279662 65:0.7929168 66:-0.99999625 67:-0.93127017 68:-0.58823295 69:-0.74620133 70:-0.99802548 71:-0.99713321 72:-0.93375787 73:-0.99713321 74:-0.92785323 75:-0.68474239 76:-0.74939519 77:-0.66892367 78:-0.32274056 79:0.047303354 80:-0.46013048 81:-0.81556388 82:0.25712522 83:0.33496439 84:-0.64452866 85:-0.49467136 86:-0.4824349 87:0.28336438 88:-0.4824349 89:0.15125124 90:-0.99704046 91:-0.98171387 92:-0.95336594 93:-0.69015389 94:0.75918909 95:-0.99999711 96:-0.93042288 97:-0.59450912 98:-0.93065637 99:-0.99822859 100:-0.99689243 101:-0.93321948 102:-0.99689243 103:-0.92268535 104:-0.58556971 105:-0.86820383 106:-0.69237086 107:-0.26248529 108:0.093208556 109:-0.619007 110:-0.83066658 111:0.35513084 112:0.28125098 113:-0.69902132 114:-0.48957943 115:-0.51386845 116:0.35449674 117:-0.51386845 118:0.062308213 119:-0.99792928 120:-0.98051584 121:-0.96084231 122:-0.6730152 123:0.72078866 124:-0.99999744 125:-0.9292313 126:-0.57357165 127:-0.99994922 128:-0.99765036 129:-0.99639113 130:-0.93173788 131:-0.99639113 132:-0.8283484 133:-0.58911632 134:-0.31490281 135:-0.66860926 136:-0.28347027 137:0.10689974 138:-0.45185444 139:-0.8141648 140:0.40790938 141:0.25337312 142:-0.68624003 143:-0.5309657 144:-0.53390312 145:0.34801182 146:-0.53390312 147:-0.066429329 148:-0.99787896 149:-0.96633119 150:-0.95870363 151:-0.6343611 152:0.65943592 153:-0.99999733 154:-0.92766948 155:-0.56384315 156:-0.99994151 157:-0.99687533 158:-0.99475721 159:-0.93368039 160:-0.99475721 161:-0.57490508 162:-0.15696016 163:-0.73401598 164:-0.74174428 165:0.39583241 166:-0.5986126 167:-0.47390545 168:-0.504002 169:0.16529006 170:-0.19179888 171:-0.61297749 172:-0.81208826 173:0.58018257 174:-0.11100659 175:-0.04672447 176:-0.11651335 177:0.22414816 178:-0.04550117 179:-0.4683629 180:-0.40848295 181:-0.16119741 182:-0.34517195 183:-0.26898907 184:0.94612428 185:0.45582922 186:-0.30372476 187:-0.62758821 188:-0.77137946 189:0.10130239 190:-0.015768863 191:-0.57220506 192:0.11668515 193:0.27810957 194:-0.026902316 195:-0.62370799 196:-0.83195387 197:-0.087056996 198:0.11374908 199:-0.49678705 200:-0.26372732 201:0.26174609 202:0.14207392 203:-0.57585988 204:-0.22831493 205:0.29922791 206:0.74690922 207:0.28915058 208:0.94084138 209:0.24032184 210:0.35035047 211:-0.82304295 212:-0.90143001 213:-0.94792752 214:-0.9934224 215:-0.67806519 216:-0.72989882 217:-0.14649176 218:-0.93548311 219:-0.9532208 220:-0.95064755 221:-0.79913335 222:-0.92745015 223:0.2516617 224:-0.11894905 225:-0.7817929 226:-0.79913335 227:-0.36544989 228:-0.69387755 229:0.14957458 230:-0.54761914 231:0.093796775 232:-0.78751084 233:-0.76317712 234:-0.77358933 
0 1285.995761363652 0 0 4006.054054054054 0 0 0:-0.58726113 1:0.71732149 2:-0.5 3:-0.85865666 4:-0.94032442 5:-0.81971412 6:-0.75454545 7:0.85509591 8:-0.66666667 9:-0.99292824 10:-0.54230904 11:-0.1967917 12:-0.28773806 13:-0.12054312 14:-1 15:-0.33333334 16:-1 17:-1 18:-1 19:-0.20960796 20:-0.23699869 21:-0.22849119 22:-0.21224173 23:-1 24:-1 25:-1 26:-0.97399851 27:-1 28:-0.64143557 29:-0.81839465 30:-0.90092406 31:-0.97655596 32:-0.95914824 33:-1 34:-1 35:-0.9516461 36:-0.98209198 37:-0.61660043 38:-0.77149029 39:-0.89307787 40:-0.87915417 41:-0.9313093 42:-0.54324853 43:-0.52196295 44:-0.57972303 45:-0.95840162 46:-0.85054623 47:-0.69080183 48:-0.61744957 49:-0.48702137 50:0.33985253 51:-0.18429128 52:-0.75982491 53:-0.17531055 54:0.74678142 55:-0.38212848 56:-0.50955245 57:-0.55297544 58:-0.14998679 59:-0.55297544 60:-0.36668847 61:-0.99249453 62:-0.97155049 63:-0.91843639 64:-0.49910555 65:0.74177887 66:-0.99998112 67:-0.89120909 68:-0.32985328 69:-0.74599847 70:-0.99448861 71:-0.9940258 72:-0.89282733 73:-0.9940258 74:-0.96946797 75:-0.82493701 76:-0.61514026 77:-0.62689701 78:-0.54328472 79:0.43913915 80:-0.40702275 81:-0.78131937 82:-0.16748034 83:0.72306558 84:-0.59825263 85:-0.51329702 86:-0.58558288 87:-0.10340131 88:-0.58558288 89:-0.47745846 90:-0.99564764 91:-0.97101638 92:-0.93185457 93:-0.47353529 94:0.64855757 95:-0.99998283 96:-0.89003989 97:-0.29539087 98:-0.93044344 99:-0.99431934 100:-0.99424068 101:-0.89337443 102:-0.99424068 103:-0.96970023 104:-0.77684465 105:-0.75464145 106:-0.65959547 107:-0.52098065 108:0.49338963 109:-0.49442069 110:-0.80707271 111:-0.080894488 112:0.66134441 113:-0.70332115 114:-0.44647053 115:-0.61568208 116:-0.015466981 117:-0.61568208 118:-0.56544954 119:-0.9963351 120:-0.97203406 121:-0.93384224 122:-0.43862768 123:0.5327533 124:-0.99998159 125:-0.8860549 126:-0.28854663 127:-0.99971388 128:-0.99317068 129:-0.99396407 130:-0.89102113 131:-0.99396407 132:-0.94347181 133:-0.71172632 134:-0.27302955 135:-0.69582977 136:-0.42651051 137:0.52976303 138:-0.42136881 139:-0.8445079 140:0.069690085 141:0.60097173 142:-0.72458807 143:-0.50724306 144:-0.64275093 145:0.077954517 146:-0.64275093 147:-0.60266725 148:-0.99577215 149:-0.96359429 150:-0.92379487 151:-0.40548011 152:0.38248891 153:-0.99998094 154:-0.8760516 155:-0.33886848 156:-0.99969176 157:-0.99293465 158:-0.99334471 159:-0.88847946 160:-0.99334471 161:-0.26245935 162:0.0088618975 163:-0.29238644 164:-0.53429297 165:0.37997055 166:-0.59651464 167:-0.41272167 168:-0.13893206 169:0.029970017 170:-0.16543281 171:-0.51549901 172:-0.74897921 173:0.45204779 174:-0.09083555 175:-0.14659591 176:-0.26943066 177:0.025199427 178:0.3351802 179:-0.55926076 180:-0.62204027 181:-0.5885962 182:-0.49890216 183:0.1291495 184:0.96493542 185:0.092587138 186:-0.058301726 187:-0.52062589 188:-0.56596476 189:-0.34167044 190:-0.28720431 191:-0.23346397 192:0.50035972 193:0.15120368 194:-0.12472488 195:-0.37330221 196:-0.45532154 197:-0.16974166 198:-0.0013945793 199:-0.23879959 200:-0.35127234 201:-0.080354519 202:0.37333641 203:-0.79203911 204:-0.70831184 205:-0.10264866 206:0.063124313 207:-0.12156118 208:0.69955679 209:-0.12549762 210:0.054301633 211:-0.58990705 212:-0.72415067 213:-0.84904156 214:-0.96972336 215:-0.67737023 216:-0.72271118 217:-0.1430282 218:-0.89625575 219:-0.92101677 220:-0.81040985 221:-0.54653662 222:-0.95033068 223:-0.14816537 224:-0.25483358 225:-0.67397156 226:-0.54653662 227:-0.72214044 228:-0.44897959 229:-0.23699869 230:-0.22849134 231:-0.21224197 232:-0.57415438 233:-0.42204296 234:-0.59878589 
0 0 0 0 4006.054054054054 0 0 0:-0.78769874 1:0.78192155 2:0.33333332 3:-0.94765688 4:-0.95626157 5:-0.89428946 6:-0.88409091 7:0.85509591 8:-1 9:-0.99866521 10:-0.57836641 11:0.28189762 12:-0.012270407 13:-0.13351359 14:-1 15:-0.14285715 16:-1 17:-1 18:-1 19:0.14843626 20:-0.47979312 21:-0.005603848 22:-0.4643023 23:-1 24:-1 25:-1 26:-1 27:-1 28:-0.52792717 29:-0.80202267 30:-0.86431226 31:-0.92499438 32:-0.96685714 33:-0.95799861 34:-0.99392451 35:-0.97569804 36:-0.98109936 37:-0.96877692 38:-0.77530157 39:-0.9077823 40:-0.92765266 41:-0.93080247 42:-0.84915824 43:-0.32377886 44:-0.80179468 45:-0.88566456 46:-0.84965474 47:-0.59908933 48:-0.78111467 49:-0.49059816 50:-0.0995566 51:-0.099272987 52:-0.86857542 53:-0.059301813 54:0.1390273 55:-0.46369164 56:-0.64640816 57:-0.6733397 58:-0.027963717 59:-0.6733397 60:0.22232066 61:-0.99549441 62:-0.98269721 63:-0.95103674 64:-0.68601142 65:0.84498779 66:-0.9999916 67:-0.92768378 68:-0.57806829 69:-0.74616128 70:-0.99756487 71:-0.99683783 72:-0.92820483 73:-0.99683783 74:-0.90978622 75:-0.84776481 76:-0.55840486 77:-0.77080691 78:-0.58621403 79:-0.0068028419 80:-0.29382384 81:-0.87683668 82:-0.061313656 83:0.2111102 84:-0.69499034 85:-0.65216556 86:-0.68173561 87:0.01392777 88:-0.68173561 89:0.13800374 90:-0.99739113 91:-0.98143132 92:-0.95889153 93:-0.66906828 94:0.78772231 95:-0.99999355 96:-0.92750604 97:-0.5523654 98:-0.9306288 99:-0.99764047 100:-0.99678729 101:-0.92895854 102:-0.99678729 103:-0.90476676 104:-0.81119559 105:-0.75765004 106:-0.77175014 107:-0.57145784 108:0.049959669 109:-0.38501406 110:-0.87828526 111:0.011703871 112:0.25609759 113:-0.78775215 114:-0.61013994 115:-0.68249928 116:0.096208178 117:-0.68249928 118:0.0073011961 119:-0.99781023 120:-0.9803859 121:-0.95868672 122:-0.64166499 123:0.70555492 124:-0.99999496 125:-0.92600169 126:-0.53020801 127:-0.99990815 128:-0.99722006 129:-0.99632275 130:-0.92873293 131:-0.99632275 132:-0.80260809 133:-0.81330185 134:-0.27528231 135:-0.76389028 136:-0.59041671 137:0.099580399 138:-0.14444788 139:-0.89303498 140:0.12567818 141:0.31850366 142:-0.80592856 143:-0.59341267 144:-0.66060324 145:0.20107268 146:-0.66060324 147:-0.10441815 148:-0.99791363 149:-0.97091763 150:-0.9577776 151:-0.6078567 152:0.64893268 153:-0.99999556 154:-0.92210676 155:-0.51105652 156:-0.99991556 157:-0.99630459 158:-0.99536714 159:-0.92769979 160:-0.99536714 161:-0.072087823 162:-0.064690978 163:-0.084343581 164:-0.19136325 165:0.5435916 166:-0.67769896 167:-0.30279897 168:-0.13920905 169:0.16795186 170:-0.20410351 171:-0.095869748 172:-0.64626677 173:0.5669121 174:-0.156684 175:-0.012334687 176:-0.020919695 177:0.53011451 178:0.053227961 179:-0.75101405 180:-0.80173064 181:-0.4205828 182:-0.53122323 183:-0.00037304684 184:0.99540073 185:0.32469317 186:-0.34681014 187:-0.14740198 188:-0.2178771 189:-0.45210112 190:-0.50223744 191:-0.57041099 192:0.17738719 193:0.21061707 194:-0.32392318 195:-0.59774702 196:-0.74374663 197:-0.30683734 198:0.36584938 199:0.028001733 200:-0.17911304 201:-0.084879054 202:0.073516808 203:-0.69100724 204:-0.34844209 205:0.22166241 206:-0.59210051 207:0.018779303 208:0.94112421 209:-0.086344318 210:-0.0024013981 211:-0.40737577 212:-0.52928621 213:-0.96495584 214:-0.98912155 215:-0.67798613 216:-0.72642913 217:-0.14728025 218:-0.93632379 219:-0.96012002 220:-0.63826635 221:-0.11302489 222:-0.98353869 223:-0.0095904554 224:-0.4503019 225:-0.12962753 226:-0.11302489 227:-0.89513201 228:-0.21768708 229:-0.47979312 230:-0.0056040376 231:-0.46430246 232:-0.2272333 233:-0.75459387 234:-0.84768724 
0 0 0 0 0 0 3288.729690415088 0:-0.80984409 1:0.71205035 2:-8.3333332e-09 3:-0.95936433 4:-0.9348053 5:-0.85228021 6:-0.91363636 7:0.90339709 8:-1 9:-0.99983892 10:-0.58671097 11:-0.17166218 12:-0.30858928 13:-0.16416967 14:-1 15:-0.61904762 16:-1 17:-1 18:-1 19:0.19302574 20:-0.50789537 21:0.060447882 22:-0.46728267 23:-1 24:-1 25:-1 26:-1 27:-1 28:-0.66938256 29:-0.87438519 30:-0.94683402 31:-0.99200009 32:-0.97156235 33:-0.96087154 34:-0.98868016 35:-0.90944125 36:-0.94913295 37:-0.57338487 38:-0.7817775 39:-0.918256 40:-0.85215319 41:-0.93766515 42:-0.41937145 43:-0.23533864 44:-0.54805677 45:-0.93322654 46:-0.71737639 47:-0.74188785 48:-0.76654366 49:-0.25301888 50:0.15965964 51:-0.31170361 52:-0.85857987 53:0.31019893 54:0.42203716 55:-0.55116382 56:-0.56669516 57:-0.55110592 58:0.33262648 59:-0.55110592 60:-0.092258152 61:-0.99469573 62:-0.98073015 63:-0.9423573 64:-0.63753424 65:0.81750968 66:-0.99999492 67:-0.86814187 68:-0.51347821 69:-0.74621833 70:-0.9964522 71:-0.99555177 72:-0.86575266 73:-0.99555177 74:-0.94488599 75:-0.72724175 76:-0.72893784 77:-0.7605754 78:-0.406751 79:0.21291367 80:-0.44544104 81:-0.88764126 82:0.32616506 83:0.41567633 84:-0.76763993 85:-0.60560845 86:-0.56451185 87:0.3715661 88:-0.56451185 89:-0.15111704 90:-0.99664951 91:-0.97909061 92:-0.94720569 93:-0.62499011 94:0.72737855 95:-0.99999573 96:-0.86632887 97:-0.50279497 98:-0.9306764 99:-0.99681142 100:-0.99540939 101:-0.86451303 102:-0.99540939 103:-0.93647962 104:-0.70093459 105:-0.87547819 106:-0.76432028 107:-0.44306544 108:0.23119855 109:-0.51220685 110:-0.91146495 111:0.41217796 112:0.40537442 113:-0.84838502 114:-0.60215476 115:-0.56232333 116:0.47031189 117:-0.56232333 118:-0.20098598 119:-0.99728602 120:-0.9780949 121:-0.94986259 122:-0.61947805 123:0.64418747 124:-0.99999679 125:-0.86251555 126:-0.52164794 127:-0.99993684 128:-0.99668523 129:-0.99475517 130:-0.85962587 131:-0.99475517 132:-0.86840982 133:-0.74631377 134:-0.32017718 135:-0.65109513 136:-0.50632364 137:0.26531855 138:-0.28131303 139:-0.88092501 140:0.54750595 141:0.4693847 142:-0.79659301 143:-0.50423111 144:-0.44019893 145:0.57731053 146:-0.44019893 147:-0.32611731 148:-0.9974387 149:-0.9672763 150:-0.9478851 151:-0.58079579 152:0.56619519 153:-0.99999533 154:-0.85584716 155:-0.49152759 156:-0.99990496 157:-0.99552523 158:-0.99338112 159:-0.85601759 160:-0.99338112 161:-0.077457942 162:0.06303273 163:-0.62869803 164:-0.57239627 165:0.72599833 166:-0.72747476 167:-0.25098791 168:0.38711559 169:0.56628703 170:-0.047569257 171:-0.53442633 172:-0.6764693 173:0.69675536 174:-0.17806725 175:0.33016812 176:0.3780202 177:0.75335056 178:-0.29868773 179:-0.5060621 180:-0.65509986 181:-0.15524288 182:-0.44211226 183:-0.36569273 184:0.97868544 185:0.62848911 186:-0.41957487 187:-0.35328184 188:-0.60120327 189:0.082542752 190:-0.091679309 191:-0.54928448 192:0.39146152 193:0.34297122 194:-0.26939905 195:-0.36219341 196:-0.54444173 197:-0.028178532 198:-0.24229973 199:0.061905552 200:-0.19602834 201:-0.12328215 202:0.12135419 203:-0.73227713 204:-0.56303175 205:0.40477883 206:0.48449863 207:0.38730815 208:0.96692475 209:0.28986535 210:0.32489804 211:-0.3235534 212:-0.47570055 213:-0.85621428 214:-0.9805535 215:-0.67848061 216:-0.7385864 217:-0.14736948 218:-0.87796355 219:-0.93879211 220:-0.77852266 221:-0.53361223 222:-0.94261712 223:0.34390195 224:-0.23136934 225:-0.48269927 226:-0.53361223 227:-0.59320384 228:-0.49659864 229:-0.50789537 230:0.060447683 231:-0.46728283 232:-0.61578491 233:-0.97046664 234:-0.47094011 
0 0 0 0 1935.6679407299 0 0 0:-0.63470255 1:0.60233526 2:-0.66666667 3:-0.74598519 4:-0.91956565 5:-0.95949996 6:-0.4 7:0.76422419 8:-0.66666667 9:-0.96379259 10:-0.68005426 11:-0.1967917 12:-0.30858928 13:-0.14628892 14:-1 15:-0.14285715 16:-1 17:-1 18:-1 19:-0.39239074 20:-0.093690886 21:-0.3488298 22:-0.083224607 23:-1 24:-1 25:-1 26:-1 27:-0.91791251 28:-0.56778337 29:-0.8770624 30:-0.89421892 31:-0.9653269 32:-0.89036939 33:-1 34:-1 35:-1 36:-0.95172498 37:-0.76075502 38:-0.77433345 39:-0.92615213 40:-0.93708453 41:-0.95697564 42:-0.69639504 43:-0.62166243 44:-0.59731981 45:-0.9272413 46:-0.81745371 47:-0.6328755 48:-0.78479413 49:-0.41041267 50:0.076910457 51:-0.23246037 52:-0.90041785 53:-0.0091588706 54:0.33557928 55:-0.50724687 56:-0.66019487 57:-0.66480669 58:0.015477729 59:-0.66480669 60:-0.28622174 61:-0.99387454 62:-0.97836421 63:-0.93343324 64:-0.58241768 65:0.78925714 66:-0.99999307 67:-0.88743277 68:-0.43964425 69:-0.74606742 70:-0.99572659 71:-0.99536331 72:-0.88722529 73:-0.99536331 74:-0.94187731 75:-0.81604645 76:-0.61151638 77:-0.77927348 78:-0.53377231 79:0.16010775 80:-0.35318902 81:-0.91534148 82:2.954761e-05 83:0.40224854 84:-0.74465999 85:-0.68166186 86:-0.67537737 87:0.065475295 88:-0.67537737 89:-0.41778402 90:-0.99612739 91:-0.97737399 92:-0.93897864 93:-0.55006969 94:0.68489538 95:-0.99999283 96:-0.88589835 97:-0.3993448 98:-0.93053308 99:-0.99570827 100:-0.99540747 101:-0.88746539 102:-0.99540747 103:-0.93510508 104:-0.78698192 105:-0.80549056 106:-0.77902682 107:-0.55411712 108:0.2025561 109:-0.48818916 110:-0.92188192 111:0.084924944 112:0.35486071 113:-0.8495374 114:-0.64954376 115:-0.66908883 116:0.16653633 117:-0.66908883 118:-0.50294344 119:-0.99654873 120:-0.97797727 121:-0.93658953 122:-0.52260906 123:0.55049934 124:-0.99999177 125:-0.88122536 126:-0.40565879 127:-0.99980695 128:-0.99531963 129:-0.99514283 130:-0.88474123 131:-0.99514283 132:-0.86175466 133:-0.79421371 134:-0.30437491 135:-0.73200033 136:-0.57954563 137:0.23099775 138:-0.10323169 139:-0.91800202 140:0.22813501 141:0.38070204 142:-0.8445748 143:-0.63548884 144:-0.60683767 145:0.29645003 146:-0.60683767 147:-0.52213678 148:-0.99698081 149:-0.97072325 150:-0.9394416 151:-0.50909046 152:0.49740743 153:-0.99999043 154:-0.87348228 155:-0.41137296 156:-0.99980282 157:-0.99435965 158:-0.99448913 159:-0.87942894 160:-0.99448913 161:-0.40635393 162:-0.13695835 163:-0.38259175 164:-0.47502117 165:0.56739739 166:-0.57300438 167:-0.51412571 168:-0.34414622 169:0.13224775 170:-0.36780342 171:-0.65050816 172:-0.73118098 173:0.4001014 174:-0.13195967 175:-0.1417735 176:-0.18621968 177:0.10950648 178:-0.044109201 179:-0.62618098 180:-0.6096881 181:-0.41131558 182:-0.40197427 183:-0.040251353 184:0.99683387 185:0.36321069 186:-0.31658965 187:-0.42183826 188:-0.50494199 189:-0.34518439 190:-0.430084 191:-0.43290872 192:0.43158282 193:0.027405206 194:-0.19991858 195:-0.74912012 196:-0.80600327 197:-0.24636344 198:0.030862233 199:-0.11437742 200:0.22537495 201:0.068354946 202:0.09308611 203:-0.57867334 204:-0.1237543 205:0.33512325 206:-0.37411572 207:0.053149887 208:0.97443045 209:-0.04844317 210:-0.00023007923 211:-0.67895866 212:-0.80490783 213:-0.87878171 214:-0.96869363 215:-0.67745542 216:-0.72346299 217:-0.14283647 218:-0.89502814 219:-0.94771092 220:-0.78103369 221:-0.51058654 222:-0.95665225 223:0.023019272 224:-0.3804495 225:-0.55177383 226:-0.51058654 227:-0.72559209 228:-0.44897959 229:-0.093690886 230:-0.34882992 231:-0.083224886 232:-0.51864701 233:-0.34358211 234:-0.87944858 
4006.054054054054 0 0 0 0 0 0 0:-0.37855273 1:0.86195548 2:-0.66666667 3:-0.94694361 4:-0.94679866 5:-0.91963672 6:-0.91818182 7:0.85509591 8:-1 9:-0.99985856 10:-0.82280551 11:-0.61609078 12:-0.30156971 13:0.34107488 14:-1 15:-0.52380953 16:-1 17:-1 18:-1 19:-0.80992514 20:0.36607629 21:-0.70847927 22:0.2222924 23:-1 24:-1 25:-1 26:-1 27:-1 28:-0.60612125 29:-0.79242121 30:-0.92759046 31:-0.974247 32:-0.91922469 33:-0.9361394 34:-1 35:-0.90146752 36:-0.93613934 37:-0.89239493 38:-0.68959554 39:-0.88162847 40:-0.86326 41:-0.89521047 42:-0.53223062 43:-0.91585647 44:-0.21442365 45:-0.95794017 46:-0.6832508 47:-0.75491456 48:-0.67977657 49:-0.16703077 50:0.38007708 51:-0.42734409 52:-0.80527754 53:0.17014786 54:0.70163464 55:-0.5850197 56:-0.4880782 57:-0.49524164 58:0.17587301 59:-0.49524164 60:-0.19251383 61:-0.99249404 62:-0.97205527 63:-0.91909964 64:-0.5398825 65:0.74430198 66:-0.99998315 67:-0.86956052 68:-0.39291934 69:-0.74626998 70:-0.99493182 71:-0.99363458 72:-0.8697175 73:-0.99363458 74:-0.96472502 75:-0.63412537 76:-0.75043225 77:-0.68204529 78:-0.2729919 79:0.42789079 80:-0.48096681 81:-0.86873826 82:0.18979885 83:0.59050415 84:-0.77017662 85:-0.56205073 86:-0.52615099 87:0.20414256 88:-0.52615099 89:-0.24485913 90:-0.99537634 91:-0.96969243 92:-0.93075687 93:-0.53082012 94:0.6461706 95:-0.999987 96:-0.86768257 97:-0.40079214 98:-0.93069877 99:-0.99530625 100:-0.99344867 101:-0.86920285 102:-0.99344867 103:-0.94945903 104:-0.58986943 105:-0.9180907 106:-0.66126307 107:-0.34891771 108:0.3890319 109:-0.46606015 110:-0.8981272 111:0.2617996 112:0.45857958 113:-0.84119399 114:-0.60208374 115:-0.50395049 116:0.28507799 117:-0.50395049 118:-0.29683824 119:-0.9956086 120:-0.96736056 121:-0.93387074 122:-0.51827397 123:0.55258896 124:-0.99999044 125:-0.86411232 126:-0.43905455 127:-0.99990994 128:-0.9952888 129:-0.99234668 130:-0.86621481 131:-0.99234668 132:-0.9147032 133:-0.62023074 134:-0.33174572 135:-0.4997312 136:-0.36051085 137:0.42451041 138:-0.27524981 139:-0.84805682 140:0.31185055 141:0.52252081 142:-0.74050903 143:-0.54279849 144:-0.40581264 145:0.28653406 146:-0.40581264 147:-0.48499311 148:-0.99552366 149:-0.94878448 150:-0.92619116 151:-0.45538631 152:0.41520164 153:-0.99998552 154:-0.86133904 155:-0.38467341 156:-0.99978487 157:-0.99352887 158:-0.9900936 159:-0.87076614 160:-0.9900936 161:-0.6155172 162:-0.17147929 163:-0.70540932 164:-0.74259102 165:0.62966075 166:-0.68528457 167:-0.52367679 168:-0.80817473 169:0.32922281 170:-0.03917982 171:-0.77949844 172:-0.84636386 173:0.44989522 174:0.031095353 175:0.12468135 176:0.12270643 177:-0.097876171 178:-0.071858926 179:-0.42377803 180:-0.5432398 181:-0.12849483 182:-0.23060009 183:-0.22192306 184:0.96424493 185:0.43429798 186:-0.13206305 187:-0.65372015 188:-0.77481736 189:0.012584637 190:-0.14293742 191:-0.57191874 192:0.20394684 193:0.63425906 194:-0.47952669 195:-0.85012372 196:-0.87199875 197:0.092202121 198:-0.39508163 199:-0.33302444 200:-0.26347759 201:0.2850161 202:0.16965359 203:-0.46478084 204:-0.22003792 205:0.34086983 206:0.40162661 207:0.23572243 208:0.87118139 209:0.19020315 210:0.23437704 211:-0.9309111 212:-0.95279161 213:-0.9986372 214:-0.99996272 215:-0.6780555 216:-0.72937839 217:-0.14686503 218:-0.87390306 219:-0.914773 220:-0.92703228 221:-0.81292747 222:-0.90814608 223:0.19149224 224:-0.17121442 225:-0.7882429 226:-0.81292747 227:-0.47726131 228:-0.71428571 229:0.36607629 230:-0.70847932 231:0.22229201 232:-0.79011275 233:-0.96538665 234:-0.92134324 
0 0 0 0 0 0 4006.054054054054 0:-0.60797415 1:0.89563411 2:-0.83333333 3:-0.96013249 4:-0.98400943 5:-0.95169088 6:-0.86363636 7:0.85509591 8:-1 9:-1 10:-0.49536121 11:-0.1500979 12:-0.30156971 13:-0.17059099 14:-1 15:-0.42857143 16:-1 17:-1 18:-1 19:0.15178921 20:-0.48191798 21:-0.00037078722 22:-0.46426366 23:-1 24:-1 25:-1 26:-1 27:-1 28:-0.77610964 29:-0.87523013 30:-0.97027672 31:-0.98294496 32:-0.95643495 33:-1 34:-1 35:-0.94076876 36:-0.95393341 37:-0.76789468 38:-0.80200189 39:-0.88896013 40:-0.89709368 41:-0.79313207 42:-0.51979922 43:-0.31668569 44:-0.57748252 45:-0.98424378 46:-0.86667307 47:-0.72163668 48:-0.63505808 49:-0.51204238 50:0.68269033 51:-0.20720168 52:-0.79682645 53:-0.02062394 54:0.84172371 55:-0.46041638 56:-0.45236994 57:-0.50521098 58:0.015137853 59:-0.50521098 60:-0.79928014 61:-0.98401135 62:-0.92861226 63:-0.83894194 64:-0.12182692 65:0.4981464 66:-0.99964457 67:-0.69880951 68:0.12968028 69:-0.74503326 70:-0.97397884 71:-0.9742157 72:-0.69645448 73:-0.9742157 74:-0.99067768 75:-0.81391299 76:-0.66098403 77:-0.6388887 78:-0.52113269 79:0.7818422 80:-0.45909203 81:-0.82089872 82:-0.0082938764 83:0.80647279 84:-0.66710901 85:-0.46695381 86:-0.53544011 87:0.054365229 88:-0.53544011 89:-0.85582489 90:-0.98714916 91:-0.9267212 92:-0.84962707 93:-0.057454332 94:0.27698384 95:-0.99965964 96:-0.69563636 97:0.12315979 98:-0.92880917 99:-0.97351022 100:-0.97506994 101:-0.69739402 102:-0.97506994 103:-0.99202427 104:-0.72682721 105:-0.8084121 106:-0.65525958 107:-0.44474618 108:0.82993521 109:-0.60885837 110:-0.83531788 111:0.080648329 112:0.74486951 113:-0.73209359 114:-0.43016636 115:-0.5572538 116:0.1277241 117:-0.5572538 118:-0.89220908 119:-0.984551 120:-0.93143726 121:-0.83735959 122:0.0063288864 123:0.02287726 124:-0.99965402 125:-0.68519764 126:0.082436103 127:-0.99728124 128:-0.97130047 129:-0.97498952 130:-0.69289349 131:-0.97498952 132:-0.9850669 133:-0.64992358 134:-0.30909517 135:-0.60802903 136:-0.36280658 137:0.83440264 138:-0.43457886 139:-0.8289742 140:0.1891612 141:0.652914 142:-0.70279525 143:-0.5170539 144:-0.54426903 145:0.16784017 146:-0.54426903 147:-0.90582139 148:-0.98044878 149:-0.91246743 150:-0.8197498 151:0.04781433 152:-0.14107927 153:-0.99962368 154:-0.66824775 155:0.021467375 156:-0.99694349 157:-0.97161682 158:-0.97370231 159:-0.69223403 160:-0.97370231 161:-0.054433696 162:0.2375033 163:-0.46925242 164:-0.56816257 165:0.54553842 166:-0.6308197 167:-0.49367746 168:-0.53245721 169:0.33830632 170:0.031827609 171:-0.15230441 172:-0.50222774 173:0.86327982 174:-0.054439374 175:0.094046506 176:0.052997197 177:0.2664564 178:0.075925371 179:-0.54096523 180:-0.52297633 181:-0.44102583 182:-0.53713892 183:-0.032902638 184:0.95109942 185:0.25009157 186:-0.13792225 187:-0.44882325 188:-0.59346798 189:-0.059664962 190:-0.100111 191:-0.57933914 192:0.37649158 193:0.50778106 194:-0.46636662 195:-0.60256399 196:-0.66317199 197:0.23913185 198:-0.58688338 199:0.35925081 200:0.068914425 201:-0.061774012 202:-0.069043678 203:-0.81988141 204:-0.57328973 205:0.10525984 206:0.49576352 207:0.041789002 208:0.92623684 209:0.023337688 210:0.15970564 211:-0.40070687 212:-0.52524326 213:-0.95419914 214:-0.98744396 215:-0.67795775 216:-0.72596699 217:-0.14745896 218:-0.6978607 219:-0.79245411 220:-0.61245941 221:-0.53756806 222:-0.8961872 223:0.0077760001 224:-0.17091408 225:-0.57980167 226:-0.53756806 227:-0.67956632 228:-0.46258503 229:-0.48191798 230:-0.00037097419 231:-0.46426383 232:-0.60711188 233:-0.73016067 234:-0.79004516 
118.1895246639726 0 86.37895537809753 0 0 0 0 0:-0.70291566 1:0.47671654 2:-8.3333332e-09 3:-0.70049827 4:-0.93326223 5:-0.79837852 6:-0.77272727 7:0.37639671 8:-0.66666667 9:-0.97823469 10:-0.53240079 11:-0.36429971 12:-0.46809134 13:-0.23400085 14:-1 15:-0.52380953 16:-1 17:-1 18:-1 19:-0.37015025 20:-0.11218115 21:-0.33800141 22:-0.10337948 23:-0.53789935 24:-0.9551987 25:-0.89769049 26:-0.76737126 27:-0.87740306 28:-0.24191523 29:-0.74908927 30:-0.84166828 31:-0.91166381 32:-0.82401551 33:-0.83978168 34:-0.93047339 35:-0.93819857 36:-0.95994538 37:-0.8292851 38:-0.63592411 39:-0.82820905 40:-0.93397457 41:-0.94903844 42:-0.73232106 43:-0.61678656 44:-0.45739848 45:-0.56251072 46:-0.18841353 47:-0.80006814 48:-0.6239485 49:0.31858063 50:-0.83128662 51:0.1875285 52:-0.74533078 53:0.17308147 54:-0.81788253 55:-0.440707 56:-0.47636353 57:-0.45029851 58:0.12323705 59:-0.45029851 60:0.9999998 61:-1 62:-1 63:-1 64:-1 65:0.99999975 66:-1 67:-1 68:-1 69:-0.74617042 70:-1 71:-1 72:-1 73:-1 74:-0.5862093 75:-0.43864456 76:-0.78650949 77:-0.61720141 78:-0.10534403 79:-0.79490973 80:0.010682391 81:-0.79081341 82:0.18142782 83:-0.72935208 84:-0.63076841 85:-0.52192194 86:-0.47075034 87:0.16021618 88:-0.47075034 89:0.9999998 90:-1 91:-1 92:-1 93:-1 94:0.99999978 95:-1 96:-1 97:-1 98:-0.93066582 99:-1 100:-1 101:-1 102:-1 103:-0.46415442 104:-0.54060975 105:-0.89463481 106:-0.61583453 107:-0.29958808 108:-0.81174256 109:0.05194713 110:-0.81514192 111:0.25356795 112:-0.75428483 113:-0.72631412 114:-0.47209401 115:-0.46340943 116:0.26104944 117:-0.46340943 118:0.9999998 119:-1 120:-1 121:-1 122:-1 123:0.99999979 124:-1 125:-1 126:-1 127:-0.99997559 128:-1 129:-1 130:-1 131:-1 132:0.2588404 133:-0.57838482 134:-0.32781976 135:-0.50265905 136:-0.3219221 137:-0.78666983 138:0.31534539 139:-0.78666992 140:0.38592324 141:-0.75957452 142:-0.67890381 143:-0.44606533 144:-0.38417263 145:0.34264319 146:-0.38417263 147:0.9999998 148:-1 149:-1 150:-1 151:-1 152:0.99999979 153:-1 154:-1 155:-1 156:-0.99998763 157:-1 158:-1 159:-1 160:-1 161:-0.50837998 162:-0.31813059 163:-0.69311183 164:-0.60118544 165:0.86925199 166:-0.68441231 167:-0.068105808 168:-0.30111662 169:0.058630346 170:-0.18573792 171:-0.85984417 172:-0.98249992 173:0.10712996 174:0.22493756 175:0.13185754 176:-0.44398531 177:-0.070626222 178:0.2747964 179:-0.40310414 180:-0.70152977 181:0.03196845 182:-0.050633586 183:-0.22219963 184:0.84951658 185:0.34857067 186:-0.031815069 187:-0.58077852 188:-0.62870649 189:-0.42736554 190:-0.4868267 191:-0.47928351 192:-0.067921226 193:0.38535738 194:-0.50839903 195:-0.99781113 196:-1 197:0.47241331 198:-0.63328896 199:-0.019408784 200:-0.19788531 201:0.31465151 202:-0.025695484 203:0.088176191 204:-0.10579549 205:0.59383225 206:-0.27958254 207:0.23702862 208:0.10017356 209:0.22068924 210:0.30759105 211:-0.67464672 212:-0.79693278 213:-0.97504417 214:-0.99576142 215:-0.67807311 216:-0.73056191 217:-0.14690092 218:-0.99181125 219:-0.99493519 220:-0.91192786 221:-0.61598879 222:-0.97240052 223:0.20300747 224:-0.090241132 225:-0.58183431 226:-0.61598879 227:-0.65407898 228:-0.48979592 229:-0.11218115 230:-0.33800154 231:-0.10337976 232:-0.62619254 233:-0.9320824 234:-0.93025974 
0 0 0 0 4006.054054054054 0 4006.054054054054 0:-0.63022225 1:0.53914984 2:-0.33333334 3:-0.75504633 4:-0.89216556 5:-0.67422138 6:-0.58409091 7:0.58509578 8:-0.66666667 9:-0.96758482 10:-0.39507677 11:0.10558124 12:-0.28773806 13:-0.30058091 14:-4.9999997e-08 15:-0.33333334 16:0.3333332 17:-1 18:-1 19:0.39237045 20:-0.63030271 21:0.29262712 22:-0.54465056 23:-1 24:-0.96782683 25:-0.92652844 26:-0.97911778 27:-0.92663285 28:-0.62865166 29:-0.83987773 30:-0.88270382 31:-0.98057609 32:-0.88195998 33:-0.97123559 34:-1 35:-0.97780926 36:-0.95972979 37:-0.43834135 38:-0.77270504 39:-0.94263672 40:-0.95397848 41:-0.88705657 42:-0.36501544 43:0.056128876 44:-0.67317083 45:-0.92276115 46:-0.91863537 47:-0.41593381 48:-0.8697248 49:-0.64793925 50:0.16783637 51:0.016870266 52:-0.90463623 53:-0.18318237 54:0.48891889 55:-0.4824562 56:-0.77357301 57:-0.79020033 58:-0.13995727 59:-0.79020033 60:-0.3991947 61:-0.99156178 62:-0.97466198 63:-0.9082999 64:-0.50178186 65:0.70968792 66:-0.99998415 67:-0.88073464 68:-0.3430821 69:-0.74600846 70:-0.995032 71:-0.99448259 72:-0.88274972 73:-0.99448259 74:-0.93418861 75:-0.90676154 76:-0.32912169 77:-0.87657671 78:-0.71871949 79:0.24571192 80:-0.15804557 81:-0.91282302 82:-0.18387358 83:0.43711967 84:-0.74061612 85:-0.77993748 86:-0.80749911 87:-0.083208587 88:-0.80749911 89:-0.50248118 90:-0.99503143 91:-0.97422697 92:-0.92223301 93:-0.47589423 94:0.59896454 95:-0.99998473 96:-0.87958762 97:-0.31552415 98:-0.93045662 99:-0.99504158 100:-0.99470148 101:-0.8838533 102:-0.99470148 103:-0.92499393 104:-0.87456681 105:-0.58981285 106:-0.90985208 107:-0.70817575 108:0.27869329 109:-0.2666891 110:-0.93450247 111:-0.11082162 112:0.36712548 113:-0.87829778 114:-0.76554927 115:-0.83320046 116:0.012384584 117:-0.83320046 118:-0.55875974 119:-0.99581866 120:-0.97563453 121:-0.92512862 122:-0.45237797 123:0.47212194 124:-0.99998411 125:-0.87555525 126:-0.33642058 127:-0.99971089 128:-0.99445722 129:-0.99457156 130:-0.88176217 131:-0.99457156 132:-0.81617635 133:-0.86723963 134:-0.27503026 135:-0.92878664 136:-0.7194644 137:0.25377959 138:0.15312389 139:-0.97179183 140:-0.02859521 141:0.23345825 142:-0.92982555 143:-0.85485521 144:-0.81246473 145:0.10456062 146:-0.81246473 147:-0.55862654 148:-0.9960263 149:-0.9702232 150:-0.92646842 151:-0.45399902 152:0.40046489 153:-0.99998614 154:-0.87033962 155:-0.39952567 156:-0.9997406 157:-0.99439017 158:-0.99442163 159:-0.88092053 160:-0.99442163 161:0.069932405 162:0.17506555 163:0.002356107 164:-0.41405588 165:0.25276659 166:-0.51486892 167:-0.58321635 168:-0.34453556 169:0.10231814 170:-0.37713126 171:-0.41217724 172:-0.57569216 173:0.3518806 174:-0.43094217 175:-0.032383594 176:0.054348759 177:0.47379453 178:0.088686844 179:-0.75876867 180:-0.6731708 181:-0.53792356 182:-0.6439782 183:0.13578336 184:0.98473677 185:0.23763255 186:-0.3784043 187:-0.40523804 188:-0.44048131 189:-0.46206933 190:-0.45888556 191:9.5260791e-05 192:0.6404452 193:0.20854625 194:-0.3326161 195:-0.55359517 196:-0.68862373 197:-0.0037223937 198:0.082654235 199:0.003285735 200:-0.24965554 201:-0.33918111 202:0.21803635 203:-0.75493133 204:-0.54719814 205:-0.25982366 206:-0.55367204 207:-0.12007642 208:0.9781253 209:-0.25959278 210:-0.1963861 211:-0.036963817 212:-0.23635579 213:-0.7173511 214:-0.84655449 215:-0.66624581 216:-0.66717307 217:-0.10000946 218:-0.88701088 219:-0.93800139 220:-0.63084489 221:-0.26050075 222:-0.96451581 223:-0.14327928 224:-0.58477705 225:-0.34336631 226:-0.26050075 227:-0.83545767 228:-0.30612245 229:-0.63030271 230:0.29262687 231:-0.54465069 232:-0.45359931 233:-0.355098 234:-0.83660148 
0 13.69637277960619 0 0 1118.472506672661 0 0 0:-0.68928379 1:0.84104301 2:-0.33333334 3:-0.95911487 4:-0.95900317 5:-0.91742965 6:-0.91136364 7:0.90428334 8:-1 9:-0.99961989 10:-0.84897429 11:-0.40588932 12:0.090982993 13:0.63879131 14:-1 15:-0.047619052 16:-1 17:-1 18:-1 19:-0.88365432 20:0.49999836 21:-0.78261905 22:0.31528087 23:-1 24:-1 25:-1 26:-1 27:-1 28:-0.58655161 29:-0.82500112 30:-0.89744487 31:-0.97458943 32:-0.95193454 33:-0.96719278 34:-1 35:-1 36:-0.99343855 37:-0.96423049 38:-0.75090657 39:-0.92330551 40:-0.96813008 41:-0.96327478 42:-0.93432443 43:-0.95236037 44:-0.48744927 45:-0.86047974 46:-0.98194543 47:0.99999839 48:-1 49:-0.98659972 50:-0.21163681 51:0.57792643 52:-1 53:-0.83825347 54:-0.12329231 55:-0.57649184 56:-1 57:-1 58:-0.78866423 59:-1 60:0.4651597 61:-0.99557242 62:-0.98847598 63:-0.95624342 64:-0.78112765 65:0.86423146 66:-0.99999592 67:-0.92821651 68:-0.71297279 69:-0.74619121 70:-0.99868315 71:-0.99789408 72:-0.9282222 73:-0.99789408 74:-0.88420126 75:-1 76:0.99999824 77:-1 78:-1 79:-0.14218799 80:0.28141119 81:-1 82:-0.84696268 83:-0.18639412 84:-0.8604916 85:-1 86:-1 87:-0.70066179 88:-1 89:0.44956276 90:-0.99793025 91:-0.98757055 92:-0.97032476 93:-0.78803014 94:0.84979611 95:-0.99999733 96:-0.92806587 97:-0.71664568 98:-0.93067147 99:-0.99877093 100:-0.99783492 101:-0.92733569 102:-0.99783492 103:-0.85937196 104:-1 105:-0.15401539 106:-1 107:-1 108:-0.11182034 109:0.21933766 110:-1 111:-0.77567801 112:-0.29600343 113:-1 114:-1 115:-0.99342482 116:-0.58395841 117:-0.99342482 118:0.41330342 119:-0.9986027 120:-0.98668099 121:-0.97604187 122:-0.78377614 123:0.83268357 124:-0.99999766 125:-0.92652134 126:-0.71061094 127:-0.99996843 128:-0.99846739 129:-0.99745684 130:-0.92412793 131:-0.99745684 132:-0.68205807 133:-1 134:-0.16165268 135:-0.97215703 136:-1 137:-0.090032224 138:0.71868065 139:-1 140:-0.72700109 141:-0.28208953 142:-1 143:-1 144:-0.92336976 145:-0.45925812 146:-0.92336976 147:0.31874897 148:-0.99864516 149:-0.97827257 150:-0.97511218 151:-0.75510585 152:0.79742305 153:-0.99999704 154:-0.92170585 155:-0.68138574 156:-0.99996376 157:-0.99776227 158:-0.99644453 159:-0.92046152 160:-0.99644453 161:-0.83847798 162:-0.24486582 163:0.35407125 164:-0.48518205 165:-0.37601799 166:-0.063630499 167:-0.9013442 168:-0.83818284 169:-0.59494559 170:-0.78797049 171:-0.97095979 172:-0.95164694 173:-0.5945808 174:-0.77054228 175:-0.77865028 176:0.35434765 177:-1 178:0.19657057 179:-0.85025723 180:-0.52500305 181:-0.99015652 182:-0.028026448 183:0.81869095 184:0.9967428 185:-0.55524833 186:0.29971612 187:-0.73894339 188:-0.51783412 189:-0.99043152 190:-1 191:0.067889039 192:0.30668592 193:-0.31035786 194:-0.075093594 195:-0.76399903 196:-0.57383855 197:-1 198:-0.52748003 199:0.016278141 200:-0.26372732 201:0.21128271 202:-0.63599429 203:-0.83109112 204:-0.37770773 205:-0.70760022 206:-0.026521889 207:-0.82054947 208:0.86739057 209:-1 210:-1 211:-0.96104627 212:-0.97204355 213:-0.99759746 214:-0.99992892 215:-0.6780555 216:-0.72937795 217:-0.14686514 218:-0.93535769 219:-0.96091601 220:-0.85933231 221:-0.595017 222:-0.96286791 223:-0.83611239 224:-1 225:-0.85049492 226:-0.595017 227:-0.88949785 228:-0.51020408 229:0.49999836 230:-0.7826191 231:0.31528045 232:-0.52905464 233:-0.91113635 234:-0.9447385 
0 0 117.0698705971073 0 0 0 0 0:-0.66747968 1:0.6502404 2:-8.3333332e-09 3:-0.90678491 4:-0.89095195 5:-0.71761853 6:-0.84545455 7:0.90428334 8:-1 9:-0.99836564 10:-0.6906606 11:-0.36429971 12:-0.18549731 13:0.17296147 14:-1 15:-0.33333334 16:-1 17:-1 18:-1 19:-0.63974528 20:0.14270074 21:-0.54584625 22:0.085166554 23:-1 24:-1 25:-1 26:-0.97284927 27:-1 28:-0.61827635 29:-0.78654526 30:-0.92377935 31:-0.98026664 32:-0.95300606 33:-0.96260097 34:-0.97836096 35:-0.91344385 36:-0.97382066 37:-0.88137914 38:-0.75458988 39:-0.92616705 40:-0.90333031 41:-0.95401359 42:-0.74406677 43:-0.78965624 44:-0.49298419 45:-0.80853181 46:-0.65815659 47:-0.74109409 48:-0.61875176 49:-0.19370783 50:-0.41165559 51:-0.048005702 52:-0.81956475 53:-0.044670915 54:-0.12432172 55:-0.45186282 56:-0.48957216 57:-0.5126504 58:-0.04661804 59:-0.5126504 60:-0.23087168 61:-0.99510606 62:-0.97196815 63:-0.94681639 64:-0.62180042 65:0.83162666 66:-0.99999517 67:-0.95760937 68:-0.48576499 69:-0.7461298 70:-0.99584839 71:-0.99557403 72:-0.96049908 73:-0.99557403 74:-0.84092885 75:-0.70684016 76:-0.71305918 77:-0.60429341 78:-0.39165978 79:-0.32884775 80:-0.23086804 81:-0.84128157 82:-0.034919422 83:-0.11188548 84:-0.66639454 85:-0.50276299 86:-0.52262343 87:-0.00019096012 88:-0.52262343 89:-0.34150051 90:-0.99681633 91:-0.97001943 92:-0.94983438 93:-0.59217618 94:0.74095267 95:-0.99999524 96:-0.95601194 97:-0.44680482 98:-0.93059252 99:-0.99587128 100:-0.99552416 101:-0.96182037 102:-0.99552416 103:-0.82440005 104:-0.66343826 105:-0.85958857 106:-0.5917442 107:-0.3954243 108:-0.28840602 109:-0.30550126 110:-0.84385322 111:0.056227542 112:-0.15441452 113:-0.73888316 114:-0.46501783 115:-0.51148012 116:0.086943063 117:-0.51148012 118:-0.4358122 119:-0.99701546 120:-0.9697835 121:-0.94356176 122:-0.56527017 123:0.59757086 124:-0.99999468 125:-0.95286374 126:-0.44330268 127:-0.99985562 128:-0.99568711 129:-0.99512742 130:-0.96361537 131:-0.99512742 132:-0.60574665 133:-0.6444245 134:-0.31829351 135:-0.51320246 136:-0.36668645 137:-0.25301625 138:-0.12137863 139:-0.82111323 140:0.17505725 141:-0.22916717 142:-0.6995269 143:-0.48590416 144:-0.47322442 145:0.15570706 146:-0.47322442 147:-0.48182901 148:-0.99695464 149:-0.96079483 150:-0.9365464 151:-0.54895977 152:0.46926012 153:-0.99999262 154:-0.9513169 155:-0.46568431 156:-0.99982656 157:-0.99542084 158:-0.99473239 159:-0.96931192 160:-0.99473239 161:-0.59326845 162:-0.16125335 163:-0.5852846 164:-0.55038103 165:0.74792226 166:-0.65205496 167:-0.34321179 168:-0.23537663 169:0.3557809 170:-0.088799288 171:-0.79904264 172:-0.86377197 173:0.15129384 174:-0.32323705 175:-0.075482061 176:-0.23087354 177:-0.14294482 178:0.056787823 179:-0.40174741 180:-0.62395088 181:-0.40138496 182:-0.17138628 183:-0.0097370406 184:0.99061343 185:0.22128931 186:-0.066276707 187:-0.60812821 188:-0.59003008 189:-0.50678486 190:-0.42877512 191:-0.45595071 192:0.36936565 193:0.22143556 194:0.17279794 195:-0.64165028 196:-0.72807746 197:-0.58146665 198:0.10104995 199:-0.15195433 200:-0.14578518 201:0.37173815 202:0.024036457 203:-0.36606417 204:-0.37955112 205:0.2683534 206:-0.081546866 207:0.0083155286 208:0.52419988 209:0.0010821741 210:0.11196563 211:-0.82481111 212:-0.89990004 213:-0.9075904 214:-0.99579432 215:-0.67807204 216:-0.72991674 217:-0.14663737 218:-0.9658606 219:-0.97655803 220:-0.8931663 221:-0.62034968 222:-0.96903073 223:-0.016963265 224:-0.19008455 225:-0.65116699 226:-0.62034968 227:-0.75801684 228:-0.51020408 229:0.14270074 230:-0.54584634 231:0.085166216 232:-0.59496964 233:-0.80653384 234:-0.44353332 
0 310.7311498277252 0 2507.569812153638 0 2776.999642349706 0 0:-0.69758807 1:0.72527592 2:-0.33333334 3:-0.9381225 4:-0.8759069 5:-0.87503412 6:-0.89090909 7:0.85509591 8:-1 9:-0.99943426 10:-0.70648188 11:-0.42342897 12:-0.24776755 13:0.15085131 14:-1 15:-0.42857143 16:-1 17:-1 18:-1 19:-0.58065161 20:0.079737055 21:-0.51930616 22:0.016921773 23:-1 24:-1 25:-1 26:-1 27:-1 28:-0.674504 29:-0.89141559 30:-0.97727355 31:-0.98851564 32:-0.971919 33:-1 34:-0.9856357 35:-0.904238 36:-0.95034795 37:-0.90157224 38:-0.80935428 39:-0.90938412 40:-0.90301509 41:-0.86789987 42:-0.70211716 43:-0.79004918 44:-0.4344672 45:-0.97993426 46:-0.83527361 47:-0.71911005 48:-0.61396741 49:-0.42455418 50:0.57229238 51:-0.2880496 52:-0.79966566 53:-0.10725206 54:0.80433194 55:-0.42952114 56:-0.48765235 57:-0.52365346 58:-0.085821845 59:-0.52365346 60:-0.49722687 61:-0.99107397 62:-0.96583782 63:-0.90299874 64:-0.41139909 65:0.69290508 66:-0.99996012 67:-0.8488286 68:-0.21344202 69:-0.74590688 70:-0.99208775 71:-0.99168269 72:-0.84935283 73:-0.99168269 74:-0.98711535 75:-0.78843428 76:-0.67068412 77:-0.61548536 78:-0.45724961 79:0.66843926 80:-0.48807363 81:-0.82040741 82:-0.08493812 83:0.78343593 84:-0.63929855 85:-0.50791144 86:-0.54859659 87:-0.037369255 88:-0.54859659 89:-0.60545863 90:-0.99433777 91:-0.96503808 92:-0.91170064 93:-0.37908611 94:0.54498782 95:-0.99996218 96:-0.84633957 97:-0.18400612 98:-0.93027498 99:-0.99211418 100:-0.99194891 101:-0.84964584 102:-0.99194891 103:-0.98768628 104:-0.68652567 105:-0.81805443 106:-0.63399191 107:-0.36261662 108:0.71928991 109:-0.69520904 110:-0.83273201 111:0.02293259 112:0.69910547 113:-0.70757251 114:-0.48486066 115:-0.57001583 116:0.042169779 117:-0.57001583 118:-0.69123112 119:-0.9941873 120:-0.96680189 121:-0.90524208 122:-0.32574738 123:0.34595636 124:-0.9999609 125:-0.83932002 126:-0.21840038 127:-0.9994373 128:-0.99117906 129:-0.99173017 130:-0.84676157 131:-0.99173017 132:-0.97069813 133:-0.56824115 134:-0.31324916 135:-0.63462304 136:-0.25222869 137:0.70053051 138:-0.55100799 139:-0.84207552 140:0.12508363 141:0.55310351 142:-0.70545647 143:-0.61180356 144:-0.60357787 145:0.05912479 146:-0.60357787 147:-0.72468858 148:-0.99260193 149:-0.96273565 150:-0.8916847 151:-0.29059442 152:0.170697 153:-0.9999625 154:-0.83071334 155:-0.29469941 156:-0.99943236 157:-0.99150607 158:-0.99231365 159:-0.84934402 160:-0.99231365 161:-0.38205928 162:-0.14569658 163:-0.46340865 164:-0.66469094 165:0.2146136 166:-0.33737732 167:-0.80229377 168:-0.51653572 169:-0.21897625 170:-0.20438447 171:-0.86054413 172:-0.88630407 173:-0.1325147 174:-0.53991348 175:-0.1184173 176:0.23855368 177:0.026085507 178:0.16433917 179:-0.62822603 180:-0.32220502 181:-0.69057091 182:-0.24864666 183:0.075055273 184:0.97978865 185:0.13661211 186:-0.047378798 187:-0.61599645 188:-0.69832402 189:-0.17251342 190:-0.21705299 191:-0.44356174 192:0.31595789 193:0.27949708 194:-0.096690016 195:-0.57475337 196:-0.65941106 197:-0.12703213 198:-0.18478589 199:-0.39448282 200:-0.19682789 201:0.019760412 202:0.18862747 203:-0.71530078 204:-0.55480581 205:0.02097661 206:0.29834759 207:-0.063720026 208:0.79457305 209:-0.066293721 210:0.081938539 211:-0.82514608 212:-0.88352273 213:-0.96012151 214:-0.99654039 215:-0.67805513 216:-0.72952519 217:-0.14673814 218:-0.85004724 219:-0.89083968 220:-0.87217033 221:-0.72768079 222:-0.90932743 223:-0.097898278 224:-0.18653721 225:-0.78894386 226:-0.72768079 227:-0.54250093 228:-0.6122449 229:0.079737055 230:-0.51930625 231:0.016921456 232:-0.7111882 233:-0.78424001 234:-0.71042134 
4006.054054054054 4006.054054054054 398.9193830822525 409.603999837983 0 11.34615601108888 0 0:-0.54517197 1:0.80322999 2:-0.66666667 3:-0.93704503 4:-0.89178235 5:-0.94551061 6:-0.82272727 7:0.85509591 8:-1 9:-0.99996464 10:-0.87062843 11:-0.48229606 12:-0.11654779 13:0.441089 14:-1 15:-0.14285715 16:-1 17:-1 18:-1 19:-0.82466825 20:0.39011505 21:-0.72244872 22:0.23901448 23:-1 24:-1 25:-1 26:-1 27:-1 28:-0.67254079 29:-0.84733634 30:-0.93936197 31:-0.97277687 32:-0.95679853 33:-1 34:-1 35:-0.9749467 36:-0.99567 37:-0.94849856 38:-0.75842587 39:-0.86375082 40:-0.91699831 41:-0.89215587 42:-0.78731388 43:-0.92346145 44:-0.3994952 45:-0.98347444 46:-0.83261978 47:-0.72812732 48:-0.61154739 49:-0.43787203 50:0.6914596 51:-0.23943908 52:-0.74164583 53:-0.062963539 54:0.84304072 55:-0.35032463 56:-0.45517826 57:-0.50168804 58:-0.037789367 59:-0.50168804 60:-0.79466187 61:-0.98304711 62:-0.93680139 63:-0.83050754 64:-0.11343075 65:0.47273845 66:-0.99957748 67:-0.64201058 68:0.12914919 69:-0.74431326 70:-0.97459397 71:-0.97427546 72:-0.63689569 73:-0.97427546 74:-0.9896571 75:-0.78932134 76:-0.65821403 77:-0.61667279 78:-0.47376122 79:0.77382208 80:-0.47209124 81:-0.76058016 82:-0.053385124 83:0.8167495 84:-0.55164829 85:-0.45785714 86:-0.5353717 87:-0.0017122327 88:-0.5353717 89:-0.85561297 90:-0.9864831 91:-0.93554108 92:-0.84503964 93:-0.048763065 94:0.25973883 95:-0.99958564 96:-0.6396798 97:0.12306589 98:-0.92805345 99:-0.97385565 100:-0.97527174 101:-0.63725615 102:-0.97527174 103:-0.99260378 104:-0.72242654 105:-0.7762931 106:-0.64917898 107:-0.44208425 108:0.84848192 109:-0.58825243 110:-0.77775835 111:0.034887244 112:0.77561843 113:-0.64720672 114:-0.3686962 115:-0.5697829 116:0.079526802 117:-0.5697829 118:-0.89796698 119:-0.98465218 120:-0.94160662 121:-0.8378877 122:0.023626764 123:0.025065112 124:-0.99957706 125:-0.62821027 126:0.096743026 127:-0.99675689 128:-0.96965953 129:-0.97586493 130:-0.62833283 131:-0.97586493 132:-0.98268354 133:-0.62252437 134:-0.28570994 135:-0.70177939 136:-0.30805521 137:0.82583029 138:-0.5715224 139:-0.80869895 140:0.17334051 141:0.64571027 142:-0.67736886 143:-0.51865986 144:-0.6313665 145:0.129524 146:-0.6313665 147:-0.90633142 148:-0.97997728 149:-0.93565513 150:-0.81316052 151:0.055914548 152:-0.1901134 153:-0.99960773 154:-0.60225615 155:0.017622356 156:-0.9968762 157:-0.97226718 158:-0.97786608 159:-0.61956522 160:-0.97786608 161:-0.70490325 162:-0.22816486 163:-0.4352051 164:-0.6215072 165:0.29205031 166:-0.471672 167:-0.70019979 168:-0.57023644 169:0.10033058 170:-0.11523727 171:-0.60217901 172:-0.6896529 173:0.40274508 174:-0.33729367 175:-0.42229155 176:-0.079511593 177:-0.084361318 178:-0.16816821 179:-0.60065511 180:-0.56407297 181:-0.55809475 182:-0.41537328 183:0.017012043 184:0.92568617 185:0.19171559 186:-0.1630775 187:-0.52949832 188:-0.64503653 189:-0.07037232 190:-0.026237014 191:-0.55456028 192:0.13851532 193:0.29895013 194:-0.024972815 195:-0.56136693 196:-0.77723189 197:0.033968283 198:0.27048684 199:-0.45060511 200:-0.22618197 201:0.29934498 202:-0.077718839 203:-0.86362432 204:-0.86547933 205:-0.23734607 206:0.57213737 207:-0.0023005157 208:0.91562176 209:-0.010465254 210:0.18046818 211:-0.93720979 212:-0.95675124 213:-0.99236029 214:-0.99963967 215:-0.67805531 216:-0.72934281 217:-0.14686625 218:-0.6394078 219:-0.79905055 220:-0.7141249 221:-0.70163749 222:-0.86455365 223:-0.036112271 224:-0.18179611 225:-0.73986515 226:-0.70163749 227:-0.62811511 228:-0.6122449 229:0.39011505 230:-0.72244877 231:0.23901409 232:-0.65915004 233:-0.81051213 234:-0.94247415 
4006.054054054054 0 0 0 0 0 0 0:-0.6634831 1:0.85106098 2:-0.5 3:-0.96470307 4:-0.96460664 5:-0.89307313 6:-0.92727273 7:0.85509591 8:-1 9:-0.99987428 10:-0.79487746 11:-0.45543943 12:-0.15032288 13:0.34535948 14:-1 15:-0.23809524 16:-1 17:-1 18:-1 19:-0.67406472 20:0.18193295 21:-0.58273331 22:0.10265453 23:-1 24:-1 25:-1 26:-1 27:-1 28:-0.39302328 29:-0.58207368 30:-0.70582172 31:-0.94872569 32:-0.94771978 33:-1 34:-1 35:-0.96722455 36:-0.99575153 37:-0.86945966 38:-0.56683876 39:-0.82716729 40:-0.81121329 41:-0.88341128 42:-0.81836825 43:-0.82618265 44:-0.40776638 45:-0.98751334 46:-0.71293669 47:-0.62341038 48:-0.81537698 49:-0.21790843 50:0.73241479 51:-0.42409248 52:-0.88389891 53:0.1218086 54:0.71545563 55:-0.4944727 56:-0.64940666 57:-0.66714298 58:0.13088119 59:-0.66714298 60:-0.83952529 61:-0.97027311 62:-0.94787808 63:-0.75414943 64:-0.028286768 65:0.27034971 66:-0.99961358 67:-0.53909048 68:0.1342819 69:-0.74487201 70:-0.97617799 71:-0.97471197 72:-0.53542163 73:-0.97471197 74:-0.99038563 75:-0.71139911 76:-0.58173423 77:-0.82652131 78:-0.36223908 79:0.76960307 80:-0.53923452 81:-0.90368027 82:0.12173906 83:0.62900222 84:-0.72838554 85:-0.69175347 86:-0.70172452 87:0.15350688 88:-0.70172452 89:-0.87634215 90:-0.97786463 91:-0.94879845 92:-0.79461539 93:0.011007474 94:0.08601989 95:-0.99966309 96:-0.53843235 97:0.093223853 98:-0.92864592 99:-0.97768985 100:-0.97663927 101:-0.53667197 102:-0.97663927 103:-0.98720752 104:-0.68860411 105:-0.8023722 106:-0.84239578 107:-0.39456258 108:0.75201949 109:-0.64457736 110:-0.91743201 111:0.19537795 112:0.4914822 113:-0.8378575 114:-0.70515036 115:-0.71818627 116:0.2306857 117:-0.71818627 118:-0.89085996 119:-0.97796805 120:-0.95188685 121:-0.80305816 122:0.033970559 123:-0.10050099 124:-0.99967202 125:-0.52694174 126:0.026454208 127:-0.99731045 128:-0.97734545 129:-0.97635122 130:-0.52430731 131:-0.97635122 132:-0.96980104 133:-0.78242185 134:-0.30250214 135:-0.76294057 136:-0.55539829 137:0.72513633 138:-0.25602232 139:-0.90503221 140:0.3240092 141:0.55089738 142:-0.82234498 143:-0.63002111 144:-0.61177294 145:0.37985794 146:-0.61177294 147:-0.89995791 148:-0.98214761 149:-0.92639738 150:-0.83324352 151:0.056348807 152:-0.070121824 153:-0.99960407 154:-0.49812567 155:0.049242628 156:-0.99700674 157:-0.96905446 158:-0.96909692 159:-0.49297485 160:-0.96909692 161:-0.6600049 162:-0.18199872 163:-0.59262721 164:-0.60626588 165:0.72591623 166:-0.80218373 167:-0.37225775 168:-0.33479216 169:0.54576128 170:-0.19237887 171:-0.7661057 172:-0.82220218 173:0.41630221 174:-0.33768037 175:-0.1598004 176:0.091817042 177:0.068983897 178:-0.21674573 179:-0.51161532 180:-0.57618341 181:-0.13760141 182:-0.52357143 183:-0.18760297 184:0.98292728 185:0.53296795 186:-0.50154208 187:-0.50692104 188:-0.63644177 189:-0.20362379 190:-0.344408 191:-0.58175376 192:0.19719855 193:0.24296475 194:-0.45244128 195:-0.84070048 196:-0.88511156 197:-0.10043063 198:-0.25031152 199:-0.27314476 200:-0.066233788 201:0.46608853 202:-0.21359156 203:-0.47503557 204:0.19054368 205:0.4725624 206:-0.094791583 207:0.20160526 208:0.96329765 209:0.083701435 210:0.12920692 211:-0.85582575 212:-0.9123015 213:-0.94702899 214:-0.99499302 215:-0.6780344 216:-0.72882929 217:-0.14666482 218:-0.53259944 219:-0.78565119 220:-0.60496985 221:-0.67704262 222:-0.86233302 223:0.16716755 224:-0.35246672 225:-0.64877992 226:-0.67704262 227:-0.71865399 228:-0.58503401 229:0.18193295 230:-0.58273339 231:0.10265418 232:-0.65134432 233:-0.55607097 234:-0.83112688 
403.929605734548 0 0 0 0 0 0 0:-0.64207494 1:0.88260206 2:-0.5 3:-0.97752407 4:-0.96995022 5:-0.90921661 6:-0.93636364 7:0.85509591 8:-1 9:-0.99996857 10:-0.80291079 11:-0.43929678 12:0.10431526 13:0.71826754 14:-1 15:-0.23809524 16:-1 17:-1 18:-1 19:-0.88229417 20:0.49714733 21:-0.77560819 22:0.32088323 23:-1 24:-1 25:-1 26:-1 27:-1 28:-0.5851858 29:-0.70880881 30:-0.89087144 31:-0.96670781 32:-0.94709503 33:-1 34:-1 35:-0.97912967 36:-0.99639295 37:-0.94637173 38:-0.73051208 39:-0.86775558 40:-0.90415024 41:-0.78165548 42:-0.87428124 43:-0.94117463 44:-0.45108932 45:-0.99063337 46:-0.82582847 47:-0.74544731 48:-0.64693053 49:-0.41749005 50:0.77530568 51:-0.32698623 52:-0.80518657 53:0.075648403 54:0.84816837 55:-0.46082242 56:-0.44541271 57:-0.4834268 58:0.10529712 59:-0.4834268 60:-0.89698119 61:-0.97129955 62:-0.91383648 63:-0.75429306 64:0.090091005 65:0.26402856 66:-0.9986333 67:-0.40633446 68:0.31270443 69:-0.74281192 70:-0.94924813 71:-0.94882196 72:-0.39411892 73:-0.94882196 74:-0.99498702 75:-0.78147965 76:-0.70101263 77:-0.63726864 78:-0.46492874 79:0.86075468 80:-0.48408353 81:-0.82262098 82:0.080673863 83:0.81302922 84:-0.65857085 85:-0.45815583 86:-0.50318605 87:0.13326259 88:-0.50318605 89:-0.93028692 90:-0.97451376 91:-0.91189555 92:-0.77513507 93:0.16272505 94:0.018146633 95:-0.99868449 96:-0.40444702 97:0.29502118 98:-0.92517674 99:-0.94841065 100:-0.95074794 101:-0.39433439 102:-0.95074794 103:-0.99629865 104:-0.72803022 105:-0.82327666 106:-0.66729512 107:-0.45892097 108:0.90401019 109:-0.55923824 110:-0.84087304 111:0.16756587 112:0.75325721 113:-0.75191484 114:-0.41898983 115:-0.53407592 116:0.22213585 117:-0.53407592 118:-0.9465087 119:-0.97091998 120:-0.91927676 121:-0.7744275 122:0.22169397 123:-0.17496484 124:-0.99868429 125:-0.38680649 126:0.25793608 127:-0.99294206 128:-0.94356056 129:-0.95123139 130:-0.3745031 131:-0.95123139 132:-0.99252339 133:-0.70559891 134:-0.30706345 135:-0.64327385 136:-0.42623242 137:0.88814003 138:-0.39844902 139:-0.84159732 140:0.30925847 141:0.6634997 142:-0.73319394 143:-0.49539459 144:-0.52324172 145:0.31147879 146:-0.52324172 147:-0.95049668 148:-0.96719743 149:-0.89957769 150:-0.76305902 151:0.24620849 152:-0.30801983 153:-0.99866566 154:-0.34530802 155:0.2033248 156:-0.99238556 157:-0.94344678 158:-0.94900072 159:-0.34618112 160:-0.94900072 161:-0.8088889 162:-0.23358914 163:-0.47430346 164:-0.53767993 165:0.63485684 166:-0.74305348 167:-0.49843584 168:-0.44492182 169:0.43934064 170:-0.078178923 171:-0.25547932 172:-0.53690864 173:0.90033513 174:-0.22258794 175:-0.32053749 176:-0.021915086 177:0.074212149 178:-0.39285627 179:-0.54075167 180:-0.56430146 181:-0.31143044 182:-0.48859819 183:-0.14003659 184:0.96467541 185:0.35930453 186:-0.23198161 187:-0.38264306 188:-0.56338633 189:-0.0053080119 190:-0.041056421 191:-0.51307405 192:0.32100029 193:0.31981898 194:-0.10901884 195:-0.25152825 196:-0.53449328 197:-0.01355434 198:-0.23220784 199:-0.36771476 200:0.29450747 201:0.68584232 202:-0.29856832 203:-0.84140743 204:-0.6054411 205:0.10909091 206:0.55720253 207:0.15438139 208:0.97022956 209:0.11653752 210:0.23583218 211:-0.95183853 212:-0.97142736 213:-0.97940017 214:-0.99969372 215:-0.67805526 216:-0.72935413 217:-0.14686341 218:-0.39362725 219:-0.69562664 220:-0.45506298 221:-0.63753096 222:-0.84602552 223:0.11593456 224:-0.17650333 225:-0.63665849 226:-0.63753096 227:-0.74745236 228:-0.53061225 229:0.49714733 230:-0.77560823 231:0.32088282 232:-0.57762359 233:-0.70735988 234:-0.90732494 
0 0 0 0 0 0 4006.054054054054 0:-0.66607061 1:0.81956557 2:-0.33333334 3:-0.95066687 4:-0.95053209 5:-0.90036833 6:-0.91136364 7:0.85509591 8:-1 9:-0.99961989 10:-0.40655787 11:-0.20475567 12:-0.36754447 13:-0.21375257 14:-1 15:-0.42857143 16:-1 17:-1 18:-1 19:0.25045068 20:-0.54363731 21:0.070752487 22:-0.52853963 23:-1 24:-1 25:-1 26:-1 27:-1 28:-0.77063269 29:-0.86369771 30:-0.96836801 31:-0.98063017 32:-0.90296196 33:-1 34:-0.98854776 35:-0.95419104 36:-0.95645525 37:-0.68218193 38:-0.81341972 39:-0.8757046 40:-0.90163823 41:-0.84830194 42:-0.38518381 43:-0.24286295 44:-0.52430449 45:-0.98174588 46:-0.82448785 47:-0.70677087 48:-0.75420984 49:-0.42927619 50:0.6692056 51:-0.28954545 52:-0.86202098 53:0.12779594 54:0.75886131 55:-0.5229591 56:-0.59551843 57:-0.58754508 58:0.16140459 59:-0.58754508 60:-0.91762701 61:-0.95592251 62:-0.90489007 63:-0.68367139 64:0.18944627 65:0.10117383 66:-0.99778588 67:-0.30553234 68:0.37197389 69:-0.74253315 70:-0.94011146 71:-0.93619809 72:-0.29429342 73:-0.93619809 74:-0.98860264 75:-0.77893165 76:-0.67443671 77:-0.75563578 78:-0.46708939 79:0.76110711 80:-0.46922409 81:-0.88687845 82:0.14117341 83:0.69063511 84:-0.73870705 85:-0.62964326 86:-0.61169666 87:0.19550036 88:-0.61169666 89:-0.94259954 90:-0.9605787 91:-0.90353038 92:-0.71564196 93:0.25348514 94:-0.1385961 95:-0.9980261 96:-0.30087755 97:0.33704967 98:-0.92394945 99:-0.94211279 100:-0.9390128 101:-0.2929891 102:-0.9390128 103:-0.98894395 104:-0.70701844 105:-0.84662936 106:-0.76671795 107:-0.44186373 108:0.79920479 109:-0.59345428 110:-0.90658304 111:0.22415316 112:0.58016769 113:-0.83067161 114:-0.62973743 115:-0.62383438 116:0.27533802 117:-0.62383438 118:-0.95460417 119:-0.9536763 120:-0.90795075 121:-0.71657429 122:0.3045184 123:-0.30030581 124:-0.99814649 125:-0.28094355 126:0.27522275 127:-0.99057809 128:-0.9403476 129:-0.93730742 130:-0.27217352 131:-0.93730742 132:-0.97597599 133:-0.72183482 134:-0.31782398 135:-0.6936273 136:-0.47783114 137:0.77918226 138:-0.32430839 139:-0.8972404 140:0.327256 141:0.546439 142:-0.80879092 143:-0.62432455 144:-0.55601741 145:0.35060009 146:-0.55601741 147:-0.96060663 148:-0.952292 149:-0.87145528 150:-0.72160555 151:0.34244846 152:-0.36974718 153:-0.99784233 154:-0.24358417 155:0.25445346 156:-0.98911588 157:-0.93110162 158:-0.92703161 159:-0.24640742 160:-0.92703161 161:-0.13978414 162:0.30919487 163:-0.45915762 164:-0.57832345 165:0.49561472 166:-0.64136302 167:-0.52231822 168:0.52948952 169:0.1044287 170:-0.009346225 171:-0.60941949 172:-0.68812858 173:0.55367825 174:-0.24171926 175:0.12819557 176:0.64724421 177:0.51848886 178:-0.095265271 179:-0.39055411 180:-0.29582267 181:-0.46215769 182:-0.78125983 183:-0.1909794 184:0.97263989 185:0.5184818 186:-0.45035557 187:-0.41677766 188:-0.60636012 189:-0.032664667 190:-0.17084342 191:-0.43039176 192:0.52608799 193:0.42990567 194:-0.27419538 195:-0.4845084 196:-0.63998054 197:-0.077554957 198:0.029908299 199:0.082021396 200:0.007305857 201:0.020696682 202:0.14582378 203:-0.79242807 204:-0.66648374 205:0.13647888 206:0.39874627 207:0.19547847 208:0.96643015 209:0.10725383 210:0.1605094 211:-0.33074169 212:-0.4536917 213:-0.9835267 214:-0.99695633 215:-0.6780576 216:-0.73003932 217:-0.14679955 218:-0.2944345 219:-0.64967354 220:-0.20823642 221:-0.53927407 222:-0.79723809 223:0.15657562 224:-0.28110536 225:-0.50965682 226:-0.53927407 227:-0.66010167 228:-0.44897959 229:-0.54363731 230:0.070752282 231:-0.52853977 232:-0.62098873 233:-0.93089493 234:-0.84816676 
0 0 0 0 1778.242947367576 0 0 0:-0.71613934 1:0.69000355 2:-0.16666667 3:-0.83800066 4:-0.96390179 5:-0.89094371 6:-0.79818182 7:0.76862121 8:-0.66666667 9:-0.98638828 10:-0.69113525 11:-0.083226699 12:-0.15032288 13:-0.043357666 14:-1 15:0.047619043 16:-1 17:-1 18:-1 19:-0.19861391 20:-0.24507823 21:-0.23353579 22:-0.23100276 23:-1 24:-1 25:-0.9262149 26:-0.97902867 27:-1 28:-0.61779829 29:-0.76843429 30:-0.73687531 31:-0.95061046 32:-0.95534679 33:-1 34:-1 35:-0.96657184 36:-0.99711128 37:-0.94846193 38:-0.79266062 39:-0.88444875 40:-0.87856737 41:-0.88166484 42:-0.92514983 43:-0.53637456 44:-0.65722636 45:-0.98105905 46:-0.80271822 47:-0.69025238 48:-0.78615197 49:-0.39158758 50:0.65885751 51:-0.28143882 52:-0.86315748 53:0.19416354 54:0.74038382 55:-0.51122023 56:-0.61069843 57:-0.60642155 58:0.22675435 59:-0.60642155 60:-0.77192994 61:-0.98093112 62:-0.95735285 63:-0.81701457 64:-0.14157615 65:0.43603768 66:-0.99976821 67:-0.5497312 68:0.067007006 69:-0.74550959 70:-0.98110445 71:-0.9794628 72:-0.54011028 73:-0.9794628 74:-0.98771523 75:-0.77278719 76:-0.65761133 77:-0.78571967 78:-0.46131762 79:0.735014 80:-0.44127509 81:-0.8856604 82:0.19782302 83:0.68515526 84:-0.722436 85:-0.63795167 86:-0.62948965 87:0.25207889 88:-0.62948965 89:-0.83140962 90:-0.98548381 91:-0.95687228 92:-0.83753299 93:-0.094836434 94:0.22948515 95:-0.99979333 96:-0.54896997 97:0.039460507 98:-0.92937903 99:-0.9817106 100:-0.98041979 101:-0.5397818 102:-0.98041979 103:-0.98837207 104:-0.73772815 105:-0.82625427 106:-0.78575185 107:-0.47375558 108:0.77336626 109:-0.55219862 110:-0.89477305 111:0.26961425 112:0.60457065 113:-0.80466345 114:-0.6080496 115:-0.62846469 116:0.33241471 117:-0.62846469 118:-0.86393595 119:-0.98575088 120:-0.95687246 121:-0.84598771 122:-0.050654091 123:0.065357309 124:-0.99978475 125:-0.53855705 126:0.003358385 127:-0.99806902 128:-0.97945945 129:-0.97881095 130:-0.52459044 131:-0.97881095 132:-0.96929248 133:-0.7924707 134:-0.30854213 135:-0.73473866 136:-0.60275303 137:0.75945649 138:-0.13488477 139:-0.8950287 140:0.41809091 141:0.61092861 142:-0.82614727 143:-0.56155228 144:-0.55342726 145:0.49140676 146:-0.55342726 147:-0.86380763 148:-0.98712183 149:-0.93929739 150:-0.86552252 151:-0.023266508 152:0.09082377 153:-0.99977396 154:-0.50725759 155:-0.0028774188 156:-0.99818734 157:-0.9745257 158:-0.97443259 159:-0.49076021 160:-0.97443259 161:-0.31102069 162:-0.14058361 163:-0.34059002 164:-0.42167655 165:0.64115858 166:-0.77825723 167:-0.33544819 168:-0.57345022 169:0.41606861 170:-0.035202785 171:-0.12671396 172:-0.44911137 173:0.78924691 174:-0.21224884 175:-0.085882453 176:-0.26701439 177:0.29840103 178:0.018370679 179:-0.6166382 180:-0.71380198 181:-0.30220928 182:-0.56285068 183:-0.26026796 184:0.9593653 185:0.5784536 186:-0.48462591 187:-0.18979796 188:-0.44391921 189:-0.081021885 190:-0.22211723 191:-0.42614321 192:0.4058465 193:0.29283195 194:-0.13715737 195:-0.14310249 196:-0.44254587 197:-0.17312389 198:-0.021554438 199:-0.052345075 200:-0.11716139 201:0.089336698 202:0.044239981 203:-0.78889593 204:-0.54481487 205:0.37608608 206:0.16912119 207:0.28335217 208:0.94677392 209:0.17271598 210:0.21736669 211:-0.60289429 212:-0.72363687 213:-0.93741357 214:-0.98454928 215:-0.67787139 216:-0.72446722 217:-0.14626068 218:-0.54174095 219:-0.8178062 220:-0.31955234 221:-0.42782673 222:-0.89838109 223:0.2403763 224:-0.30300951 225:-0.38344269 226:-0.42782673 227:-0.75772052 228:-0.40816327 229:-0.24507823 230:-0.23353594 231:-0.23100299 232:-0.45620121 233:-0.54038607 234:-0.98914491 
0 0 0 0 3539.8190137004 0 0 0:-0.58075097 1:0.77311009 2:-0.83333333 3:-0.85328756 4:-0.98774056 5:-0.96296301 6:-0.34545455 7:0.76573872 8:-0.66666667 9:-1 10:-0.74901748 11:-0.23061392 12:-0.11104337 13:0.13016938 14:-1 15:-0.14285715 16:-1 17:-1 18:-1 19:-0.4697015 20:-0.026525152 21:-0.43738975 22:-0.063847678 23:-1 24:-1 25:-0.89976633 26:-1 27:-1 28:-0.57935057 29:-0.6875032 30:-0.73566863 31:-0.93501004 32:-0.90890506 33:-1 34:-1 35:-1 36:-1 37:-0.94749093 38:-0.76510476 39:-0.89384217 40:-0.89445051 41:-0.81955979 42:-0.68404161 43:-0.72540476 44:-0.59141043 45:-0.97259923 46:-0.85013208 47:-0.64566474 48:-0.8551138 49:-0.49850482 50:0.56537821 51:-0.17445227 52:-0.88551471 53:0.29045064 54:0.65579513 55:-0.58126511 56:-0.67406066 57:-0.6637959 58:0.34004067 59:-0.6637959 60:-0.68570404 61:-0.9840334 62:-0.95512763 63:-0.84001946 64:-0.2204518 65:0.50208829 66:-0.99983507 67:-0.68611109 68:-0.014089336 69:-0.74597866 70:-0.98496958 71:-0.98332186 72:-0.68282625 73:-0.98332186 74:-0.98081063 75:-0.81164042 76:-0.66564158 77:-0.83009932 78:-0.55445747 79:0.6453064 80:-0.33676525 81:-0.91243751 82:0.28539871 83:0.61095887 84:-0.79754765 85:-0.68991519 86:-0.6538104 87:0.36112757 88:-0.6538104 89:-0.75101018 90:-0.98806353 91:-0.95117575 92:-0.86357023 93:-0.17671628 94:0.34884658 95:-0.9998648 96:-0.68568753 97:-0.025980085 98:-0.93000252 99:-0.9852527 100:-0.98291103 101:-0.68381864 102:-0.98291103 103:-0.97889109 104:-0.77797963 105:-0.86786331 106:-0.79991293 107:-0.57608772 108:0.67474446 109:-0.41446353 110:-0.93093772 111:0.34314051 112:0.53929558 113:-0.86762713 114:-0.67086765 115:-0.61476336 116:0.44068378 117:-0.61476336 118:-0.7981731 119:-0.98813579 120:-0.94788666 121:-0.86994361 122:-0.13829944 123:0.20475589 124:-0.99987089 125:-0.67949458 126:-0.056823041 127:-0.99872863 128:-0.98375964 129:-0.98035554 130:-0.67669992 131:-0.98035554 132:-0.95318364 133:-0.79195697 134:-0.31541434 135:-0.75511942 136:-0.58536128 137:0.69283136 138:-0.1977298 139:-0.92453183 140:0.49876757 141:0.52986097 142:-0.86899937 143:-0.63219209 144:-0.55438749 145:0.56281712 146:-0.55438749 147:-0.82101462 148:-0.98862033 149:-0.92959433 150:-0.87274797 151:-0.091029593 152:0.11315314 153:-0.99985324 154:-0.65950576 155:-0.066102606 156:-0.99874398 157:-0.97920195 158:-0.97755226 159:-0.66153362 160:-0.97755226 161:-0.59093139 162:-0.21077849 163:-0.54288374 164:-0.42929721 165:0.87787475 166:-0.79631983 167:0.094953582 168:0.37666547 169:0.32084532 170:0.39820061 171:-0.30037661 172:-0.59950143 173:0.82151683 174:0.29964481 175:-0.2837103 176:0.048646408 177:0.57782456 178:-0.13577225 179:-0.6363014 180:-0.6389264 181:0.16123318 182:-0.71110081 183:-0.37612377 184:0.97575517 185:0.77190682 186:-0.68140491 187:-0.14687191 188:-0.45423292 189:-0.018713162 190:-0.22010954 191:-0.50456967 192:0.4216436 193:0.65695633 194:-0.68296772 195:-0.73040197 196:-0.74340501 197:0.16044596 198:-0.43696173 199:-0.15679809 200:0.44551755 201:0.57769423 202:-0.01182908 203:-0.76945095 204:-0.61588085 205:0.41305951 206:0.10435567 207:0.40411853 208:0.97740448 209:0.24029263 210:0.23047873 211:-0.76965037 212:-0.84418077 213:-0.97816323 214:-0.99679382 215:-0.6780465 216:-0.72863421 217:-0.14691527 218:-0.6789127 219:-0.85289081 220:-0.52626225 221:-0.48937127 222:-0.92687758 223:0.35759106 224:-0.41961136 225:-0.3563717 226:-0.48937127 227:-0.77327469 228:-0.43537415 229:-0.026525152 230:-0.43738985 231:-0.063847963 232:-0.46747615 233:-0.69828188 234:-0.92891679 
0 0 0 0 0 0 2963.047617791044 0:-0.69477261 1:0.87869936 2:-0.5 3:-0.95933074 4:-0.97669693 5:-0.92959911 6:-0.9 7:0.85509591 8:-1 9:-0.99921425 10:-0.45362466 11:0.021107608 12:-0.08935831 13:-0.051534514 14:-1 15:-0.23809524 16:-1 17:-1 18:-1 19:0.12239558 20:-0.46322134 21:-0.024506838 22:-0.44788536 23:-1 24:-1 25:-1 26:-1 27:-1 28:-0.64127661 29:-0.82013153 30:-0.91215928 31:-0.95653334 32:-0.90115308 33:-0.944056 34:-0.99190772 35:-1 36:-0.98881119 37:-0.90018937 38:-0.78514863 39:-0.88304594 40:-0.92551887 41:-0.91071714 42:-0.81254687 43:-0.3433295 44:-0.68657672 45:-0.97938346 46:-0.85201427 47:-0.55412179 48:-0.83556307 49:-0.48022014 50:0.59513365 51:-0.22480235 52:-0.90968086 53:-0.013296901 54:0.66461246 55:-0.50810671 56:-0.70296751 57:-0.71805706 58:0.019131442 59:-0.71805706 60:-0.52232087 61:-0.98927482 62:-0.97545855 63:-0.88430511 64:-0.39635926 65:0.63426652 66:-0.99996403 67:-0.75025854 68:-0.21167879 69:-0.74590756 70:-0.99277783 71:-0.99208009 72:-0.74642144 73:-0.99208009 74:-0.98569917 75:-0.8296125 76:-0.50242775 77:-0.83964859 78:-0.56178234 79:0.67756158 80:-0.36360999 81:-0.92438447 82:-0.014244818 83:0.60341565 84:-0.75322941 85:-0.72188427 86:-0.73950948 87:0.056816393 88:-0.73950948 89:-0.61946074 90:-0.99332078 91:-0.97503916 92:-0.90177639 93:-0.36590153 94:0.50004105 95:-0.99996731 96:-0.74971776 97:-0.20438005 98:-0.93029115 99:-0.99285219 100:-0.9923876 101:-0.74619533 102:-0.9923876 103:-0.98614309 104:-0.80504321 105:-0.71287639 106:-0.85915013 107:-0.56179199 108:0.71417613 109:-0.52935701 110:-0.9378059 111:0.055165517 112:0.51184562 113:-0.87181943 114:-0.70091 115:-0.75767974 116:0.13814982 117:-0.75767974 118:-0.68015741 119:-0.99402577 120:-0.97684593 121:-0.90465996 122:-0.33433923 123:0.34533139 124:-0.99996699 125:-0.74365151 126:-0.23936367 127:-0.9995112 128:-0.99195279 129:-0.99235323 130:-0.73881868 131:-0.99235323 132:-0.96722091 133:-0.80682568 134:-0.29321748 135:-0.81487479 136:-0.59072624 137:0.70723131 138:-0.21896081 139:-0.93415254 140:0.18053472 141:0.4646498 142:-0.86854865 143:-0.71874422 144:-0.6899613 145:0.25470124 146:-0.6899613 147:-0.69283391 148:-0.99426486 149:-0.96863541 150:-0.90932006 151:-0.30991436 152:0.28974185 153:-0.99996151 154:-0.7267893 155:-0.26093747 156:-0.99948725 157:-0.99059175 158:-0.9911732 159:-0.72394654 160:-0.9911732 161:-0.14363326 162:0.16047241 163:-0.16195795 164:-0.39458086 165:0.49391954 166:-0.71291889 167:-0.63896605 168:-0.3652594 169:0.29477942 170:-0.46259579 171:-0.74311129 172:-0.68323079 173:0.34142291 174:-0.57960325 175:-0.044618046 176:0.53725671 177:0.47379335 178:-0.11099678 179:-0.50442432 180:-0.50090481 181:-0.44041848 182:-0.80646119 183:-0.057658089 184:0.99744859 185:0.44283869 186:-0.50338381 187:-0.31162606 188:-0.42329179 189:-0.35383805 190:-0.47006818 191:-0.43577916 192:0.36113627 193:0.08799987 194:-0.46302706 195:-0.7539572 196:-0.85168483 197:-0.23132938 198:0.099115309 199:0.16067168 200:0.091568701 201:-0.036100579 202:-0.13573485 203:-0.72613849 204:-0.64016834 205:0.31287364 206:-0.13275966 207:0.063134108 208:0.97898169 209:-0.064740188 210:-0.027092771 211:-0.42570844 212:-0.54706988 213:-0.96942723 214:-0.99065986 215:-0.67800039 216:-0.72639703 217:-0.14659288 218:-0.74495384 219:-0.90193046 220:-0.48412943 221:-0.3518963 222:-0.94322174 223:0.032278978 224:-0.4456401 225:-0.34300142 226:-0.3518963 227:-0.84061266 228:-0.31292517 229:-0.46322134 230:-0.02450702 231:-0.44788552 232:-0.43625325 233:-0.7511007 234:-0.89179121 
1186.986488194059 0 0 0 0 0 0 0:-0.64296135 1:0.74649919 2:-0.66666667 3:-0.87677803 4:-0.94297295 5:-0.94257186 6:-0.78181818 7:0.85509591 8:-1 9:-0.99646412 10:-0.75835187 11:-0.38676717 12:-0.30858928 13:0.01841575 14:-1 15:-0.52380953 16:-1 17:-1 18:-1 19:-0.37420139 20:-0.10883826 21:-0.37067562 22:-0.13047526 23:-1 24:-1 25:-1 26:-1 27:-1 28:-0.53219804 29:-0.7404054 30:-0.88867496 31:-0.98217584 32:-0.95948827 33:-1 34:-1 35:-0.94719102 36:-0.99087295 37:-0.80097685 38:-0.68965729 39:-0.87180143 40:-0.8218497 41:-0.86456426 42:-0.7535206 43:-0.67066595 44:-0.44649241 45:-0.98542436 46:-0.81832178 47:-0.66511018 48:-0.75200486 49:-0.41987824 50:0.72093709 51:-0.28766392 52:-0.85821751 53:0.025663732 54:0.74645952 55:-0.51539403 56:-0.60319003 57:-0.61825941 58:0.053109776 59:-0.61825941 60:-0.8679796 61:-0.97079746 62:-0.92868223 63:-0.75553824 64:0.045460129 65:0.27221388 66:-0.99908039 67:-0.47861631 68:0.24394373 69:-0.74442112 70:-0.96302854 71:-0.96185663 72:-0.47091451 73:-0.96185663 74:-0.98935038 75:-0.80952464 76:-0.60526839 77:-0.75602365 78:-0.51896887 79:0.77363182 80:-0.43544712 81:-0.88068815 82:0.025010354 83:0.70321648 84:-0.74277332 85:-0.61659056 86:-0.64471728 87:0.087849881 88:-0.64471728 89:-0.90148279 90:-0.97738123 91:-0.928579 92:-0.79127494 93:0.09802397 94:0.073264062 95:-0.99917957 96:-0.47745121 97:0.21911487 98:-0.9275555 99:-0.96301061 100:-0.96401787 101:-0.47081 102:-0.96401787 103:-0.98815721 104:-0.80128216 105:-0.76645528 106:-0.77967331 107:-0.56297519 108:0.77201559 109:-0.49258426 110:-0.9061047 111:0.09360788 112:0.61444191 113:-0.85398815 114:-0.58592843 115:-0.66632723 116:0.1783077 117:-0.66632723 118:-0.91766158 119:-0.97755531 120:-0.9341234 121:-0.80358626 122:0.13423712 123:-0.088439548 124:-0.99927402 125:-0.46491095 126:0.17112136 127:-0.99593158 128:-0.95924377 129:-0.96414038 130:-0.45404698 131:-0.96414038 132:-0.96865489 133:-0.8126337 134:-0.30169428 135:-0.725778 136:-0.59071321 137:0.72417247 138:-0.25885133 139:-0.92685524 140:0.20463152 141:0.53076864 142:-0.85574356 143:-0.63918335 144:-0.60666693 145:0.27819634 146:-0.60666693 147:-0.9204765 148:-0.97705835 149:-0.90989862 150:-0.80712147 151:0.14278988 152:-0.16731937 153:-0.99937112 154:-0.43353592 155:0.12003246 156:-0.99582207 157:-0.95847785 158:-0.95874423 159:-0.42954555 160:-0.95874423 161:-0.39667603 162:-0.17487142 163:-0.53291193 164:-0.63590178 165:0.57343495 166:-0.73744741 167:-0.40824982 168:-0.49485934 169:0.29699434 170:-0.14214616 171:-0.48415468 172:-0.61101113 173:0.58663395 174:-0.23835127 175:-0.11162917 176:-0.16562739 177:0.37305983 178:-0.08098454 179:-0.53841276 180:-0.69885566 181:-0.19860198 182:-0.38707827 183:-0.081801051 184:0.96822497 185:0.38758086 186:-0.30266471 187:-0.53949292 188:-0.66566395 189:-0.11167937 190:-0.17831084 191:-0.59813033 192:0.2532149 193:0.54217106 194:-0.19265557 195:-0.72467518 196:-0.84017871 197:-0.12983607 198:0.21143912 199:-0.067677836 200:0.091320487 201:0.30644679 202:0.13613788 203:-0.77142972 204:-0.47279383 205:-0.07319612 206:0.29709343 207:0.097515818 208:0.91057422 209:0.0094364834 210:0.07062173 211:-0.72204812 212:-0.80726568 213:-0.94390379 214:-0.99470818 215:-0.67807712 216:-0.7304602 217:-0.14663033 218:-0.46891056 219:-0.73984067 220:-0.56114578 221:-0.68266477 222:-0.82189406 223:0.063322255 224:-0.34718431 225:-0.66813256 226:-0.68266477 227:-0.65090346 228:-0.59863946 229:-0.10883826 230:-0.37067574 231:-0.13047553 232:-0.67996531 233:-0.88369043 234:-0.62586098 
0 0 0 0 4006.054054054054 0 0 0:-0.6884457 1:0.75031288 2:-8.3333332e-09 3:-0.89051684 4:-0.95377589 5:-0.93017617 6:-0.85909091 7:0.85509591 8:-0.66666667 9:-0.99451153 10:-0.70162761 11:-0.15468665 12:0.063817328 13:0.26808242 14:-1 15:-0.047619052 16:-1 17:-1 18:-1 19:-0.86860268 20:0.46942518 21:-0.71924362 22:0.35808056 23:-1 24:-1 25:-1 26:-1 27:-0.97169551 28:-0.64954899 29:-0.76843829 30:-0.8405747 31:-0.95991631 32:-0.90088141 33:-1 34:-0.99197405 35:-0.96254554 36:-0.98612863 37:-0.93950458 38:-0.82949066 39:-0.92485986 40:-0.93001685 41:-0.92181961 42:-0.85411948 43:-0.85546789 44:-0.66606125 45:-0.97357914 46:-0.85739803 47:-0.63932254 48:-0.76798883 49:-0.53479834 50:0.5379833 51:-0.08831435 52:-0.83459947 53:0.017019114 54:0.73346941 55:-0.42189963 56:-0.60512497 57:-0.63452562 58:0.057201483 59:-0.63452562 60:-0.49366375 61:-0.99118728 62:-0.9728347 63:-0.90451313 64:-0.42747007 65:0.6978786 66:-0.99996306 67:-0.77754317 68:-0.23703742 69:-0.74587673 70:-0.99245945 71:-0.99179606 72:-0.77332639 73:-0.99179606 74:-0.98191785 75:-0.84612106 76:-0.566769 77:-0.77163917 78:-0.59656624 79:0.62279739 80:-0.34961847 81:-0.84235393 82:0.016311656 83:0.69330994 84:-0.64782378 85:-0.61030459 86:-0.65882594 87:0.095347576 88:-0.65882594 89:-0.59208207 90:-0.99411378 91:-0.97156269 92:-0.91384537 93:-0.38637216 94:0.56192299 95:-0.99996317 96:-0.77681545 97:-0.21596099 98:-0.93024841 99:-0.99249208 100:-0.99188582 101:-0.77339417 102:-0.99188582 103:-0.98121818 104:-0.81757453 105:-0.71916874 106:-0.80188899 107:-0.5902075 108:0.66329558 109:-0.45704814 110:-0.854096 111:0.0890416 112:0.61824235 113:-0.75789185 114:-0.55996823 115:-0.68819197 116:0.18214366 117:-0.68819197 118:-0.6499784 119:-0.99494597 120:-0.97301122 121:-0.91769419 122:-0.35531486 123:0.43204366 124:-0.99996128 125:-0.77137017 126:-0.23057358 127:-0.99946424 128:-0.99136503 129:-0.99164326 130:-0.76624457 131:-0.99164326 132:-0.96138278 133:-0.81406093 134:-0.25686239 135:-0.8368375 136:-0.59052372 137:0.67268948 138:-0.22850155 139:-0.89299579 140:0.21516451 141:0.58671754 142:-0.80993418 143:-0.60681705 144:-0.70130564 145:0.28838949 146:-0.70130564 147:-0.68413895 148:-0.99495293 149:-0.96967577 150:-0.91612967 151:-0.32835033 152:0.33410711 153:-0.99996491 154:-0.75687713 155:-0.25711277 156:-0.99951116 157:-0.99031995 158:-0.99204112 159:-0.75559013 160:-0.99204112 161:-0.50909028 162:-0.19108852 163:-0.17845288 164:-0.3996613 165:0.40274973 166:-0.60868035 167:-0.60311301 168:-0.23321083 169:0.38146412 170:-0.14187991 171:0.35182555 172:-0.23023381 173:0.78171559 174:-0.21130778 175:-0.10317949 176:0.070131972 177:0.2541491 178:-0.10486755 179:-0.67412875 180:-0.63032597 181:-0.38641227 182:-0.65321854 183:-0.080678554 184:0.94888708 185:0.40045467 186:-0.45199906 187:-0.3112632 188:-0.41813494 189:-0.32378568 190:-0.35369581 191:-0.50769604 192:0.071316597 193:0.23789153 194:-0.35300801 195:-0.65816716 196:-0.74357877 197:0.0080742886 198:0.020831289 199:-0.3245663 200:0.094539154 201:0.23092384 202:0.36739079 203:-0.71265554 204:-0.49008577 205:0.13122589 206:-0.33414958 207:0.096676529 208:0.97922947 209:9.7053007e-05 210:0.11264946 211:-0.88051192 212:-0.96554681 213:-0.86544088 214:-0.99069902 215:-0.6779604 216:-0.72841305 217:-0.14760842 218:-0.77217451 219:-0.90172733 220:-0.62525255 221:-0.48666537 222:-0.94423682 223:0.063690967 224:-0.35514304 225:-0.46633447 226:-0.48666537 227:-0.80876339 228:-0.39455782 229:0.46942518 230:-0.71924368 231:0.35808013 232:-0.43104944 233:-0.096920743 234:-0.88845424 
